891 392
3901637 -0.005307 0.086759 0.00182 -0.073637 -0.0046 -0.012349 0.032369 0.038084 -0.037093 0.011708 -0.01197 -0.089318 0.245569 0.067517 -0.082319 0.052054 0.104216 -0.001631 0.038522 -0.074682 -0.144737 0.052329 0.019654 -0.071723 0.077685 -0.055926 -0.034524 -0.043809 -0.08847 0.012566 -0.089144 -0.095389 -0.118081 0.094113 -0.159127 0.151152 0.055705 0.09786 -0.056603 0.019844 0.054035 0.090218 0.08244 0.023003 0.08708 0.045452 0.00789 -0.077723 0.034812 0.026268 -0.203377 0.088362 0.240449 -0.043988 0.053762 0.003017 -0.078377 -0.005067 -0.120831 -0.062239 -0.081291 0.145489 -0.095658 0.049699 0.090039 0.047563 0.077991 0.074126 -0.04319 -0.017315 -0.029378 0.011694 -0.014711 0.03339 -0.101866 0.111222 0.001263 0.02768 -0.005137 -0.115446 -0.128649 -0.128547 -0.002112 0.109106 0.060095 0.039559 -0.050374 -0.04679 0.005399 -0.092008 -0.01654 -0.011038 0.07998 -0.121834 0.031334 -0.03347 -0.056671 0.005462 0.06161 0.046712 0.036147 0.130646 -0.079927 -0.000343 0.088562 0.007223 -0.044663 -0.130715 0.023367 -0.050602 0.029359 -0.0493 0.07994 -0.046757 0.010398 -0.028052 -0.05297 -0.04457 -0.086948 0.172306 0.067427 0.004888 0.053607 -0.056503 0.061479 -0.126842 0.015638 0.044381 -0.048048 -0.108333 0.02304 0.119592 0.047585 -0.078975 0.001819 -0.081497 -0.137 -0.058859 -0.057328 0.019741 -0.252569 -0.117593 0.047807 0.054009 -0.008416 -0.028123 0.112755 -0.031866 -0.107282 0.183579 -0.074002 0.155205 -0.001111 -0.065891 -0.025944 -0.000815 0.047442 -0.058027 0.043244 0.096884 0.045348 -0.102896 0.073799 0.105808 -0.067822 0.123772 -0.052749 0.014803 -0.111739 0.19332 0.027429 -0.059806 0.095214 -0.029335 0.016028 -0.05559 -0.028236 -0.052489 -0.126548 -0.060061 0.056147 0.194197 -0.093331 -0.018208 -0.087293 -0.084055 -0.083789 0.010292 0.057608 0.085191 0.024194 -0.046742 -0.038803 0.043044 -0.046008 -0.006028 -0.018533 -0.134114 -0.295716 0.156053 0.135732 -0.114771 0.1947 -0.111836 0.067975 0.011746 0.071784 0.012919 0.123536 0.070847 -0.040832 0.095801 -0.001269 0.194552 0.008249 0.097503 0.149696 0.113171 -0.043895 -0.020212 0.015392 -0.118718 0.105927 0.145009 0.110231 -0.033959 -0.065305 0.060941 -0.086625 -0.001286 -0.021324 0.023569 0.03975 0.068285 0.135139 -0.019869 0.0049 0.095159 0.023229 0.004408 -0.054571 -0.116208 -0.074696 0.027793 -0.055482 0.1089 -0.019883 -0.011528 -0.01119 -0.139162 0.064744 -0.072602 0.039796 0.031049 -0.027329 0.074998 0.112078 0.028559 -0.127908 0.034006 0.116655 0.146687 0.093437 0.002698 0.106702 0.005949 0.162666 -0.043006 -0.153261 0.14145 0.116385 0.053333 -0.05251 -0.076212 0.106796 -0.071392 0.074039 0.115916 0.008467 0.062846 0.085374 -0.008321 0.006855 -0.034748 0.011469 0.161209 0.036991 -0.165805 -0.106846 -0.044176 0.336326 0.050541 -0.106115 -0.114674 0.126216 0.031592 0.109308 -0.084378 0.051568 0.047812 0.027165 -0.054856 -0.175495 0.181952 0.017985 0.130979 0.0174 0.106532 -0.017655 -0.112922 0.136762 -0.147597 0.020779 -0.007645 -0.099719 -0.028842 -0.073048 0.158159 0.052871 -0.06219 -0.045194 -0.016392 -0.0263 -0.054981 -0.041166 -0.140306 -0.048389 0.019439 0.080079 0.002074 -0.012751 0.032856 0.035945 -0.032774 0.201899 0.015398 -0.037647 0.060881 -0.122166 0.013863 -0.087089 0.219022 0.003945 -0.155883 0.091807 0.033472 -0.068422 0.09095 -0.164549 -0.054658 0.024863 0.027629 0.101459 -0.062187 -0.02402 0.070061 -0.029507 -0.037111 0.133438 0.005892 0.13139 -0.043479 -0.141202 -0.125819 0.157628 0.066583 -0.033828 -0.076476 -0.116508 -0.13979 -0.014619 -0.013928 -0.03719 -0.088405 0.00742 -0.035313 0.144338 -0.011577 0.169784 0.05353 -0.001786 0.039395 0.065996 0.051633 -0.058895 -0.048905 -0.08841 -0.273145 0.01831 0.151048 0.14312 -0.103243
3901633 -0.009593 -0.07336 0.086035 -0.020896 -0.041736 -0.021217 0.001781 0.042859 -0.071334 -0.0048 -0.01903 -0.062546 -0.022469 -0.075418 -0.006972 0.073522 -0.029272 0.060089 0.015482 -0.048902 0.060347 0.01483 0.130051 -0.050897 -0.036371 -0.181659 -0.074462 0.000765 0.032789 -0.126029 -0.037442 -0.007333 0.008783 0.03822 0.025819 0.012508 -0.007822 0.071602 0.002752 0.019075 -0.039342 0.085609 0.100607 0.078604 0.020957 -0.023341 0.040399 -0.161675 -0.006702 0.056561 0.143857 0.080319 0.049008 0.031599 0.0283 -0.050071 -0.00445 0.058652 -0.098062 -0.064581 0.013122 0.008931 -0.097197 0.05 -0.006044 0.031955 -0.070329 0.011597 -0.011347 -0.035684 -0.088226 -0.058643 -0.011174 0.046827 -0.02135 0.003949 -0.026478 -0.002889 -0.020872 0.05008 -0.115096 -0.011696 0.061704 0.14645 -0.019584 0.010149 -0.025848 -0.009584 0.046723 -0.021811 -0.049013 0.068883 0.044508 -0.088664 -0.025927 0.022076 -0.019778 0.022602 0.030935 0.012929 0.084242 -0.006516 -0.067149 -0.078528 0.019525 0.19259 -0.070856 0.045918 -0.040335 -0.065417 0.036499 -0.087681 -0.064404 0.023415 -0.004769 0.018588 -0.054738 0.039331 -0.036021 0.036044 -0.053444 0.130858 0.095832 -0.049726 0.043954 -0.088108 0.043617 0.079651 -0.071903 -0.038575 -0.092034 0.077258 0.010516 0.018467 -0.035289 0.046633 0.008808 -0.048184 -0.009026 -0.056705 -0.051476 -0.141653 0.07762 -0.050208 0.001978 -0.009114 0.085717 0.035345 -0.040116 -0.055398 -0.029286 0.063956 -0.007768 -0.096403 -0.035179 0.008851 -0.010051 0.037077 -0.021437 0.005862 -0.05174 -0.040822 -0.004811 -0.009583 -0.039512 0.011174 -0.028171 0.020411 -0.020472 0.06146 -0.053343 -0.125262 0.070295 -0.016434 0.021255 -0.047124 -0.08871 -0.061863 -0.061396 0.149061 0.09152 0.077897 0.004393 0.106743 -0.044758 -0.052221 0.001338 0.052843 -0.016293 0.066221 0.000211 0.047462 -0.10229 0.058025 0.004002 0.008504 -0.012507 0.107817 -0.137387 0.056813 0.05267 0.034628 0.068737 -0.040396 -0.033062 0.017292 0.025773 0.031463 -0.060465 0.104658 -0.061622 -0.01198 -0.127168 0.074817 0.032233 0.120443 0.019503 0.088877 -0.15836 0.08297 0.054213 -0.058107 0.057644 0.014745 0.003017 0.039183 -0.07133 -0.005699 -0.008187 0.096887 -0.029586 0.074226 0.019879 0.109126 0.145285 0.027956 0.060131 -0.028661 -0.036762 0.068583 0.07115 0.022997 -0.089906 0.056389 0.013313 0.282077 0.021885 -0.063384 0.074529 -0.040589 0.010449 -0.101433 0.288511 0.029253 -0.004592 0.076306 0.218474 0.021755 -0.030713 -0.077289 0.064309 0.059963 0.140795 0.050992 -0.070802 0.017707 0.096405 -0.024791 -0.022959 0.198582 0.109894 0.085651 0.047358 -0.112648 -0.035992 -0.024441 0.28355 0.085103 -0.146158 0.1033 0.220568 0.033314 0.019161 -0.100106 0.055253 0.018405 0.006364 -0.086009 0.009248 -0.072945 -0.000119 0.112307 -0.134328 -0.049138 0.012251 0.086541 0.083701 -0.050976 0.064165 0.005324 -0.023196 0.101633 -0.116413 -0.015614 -0.026807 0.028717 0.074681 0.079306 -0.070313 -0.028723 0.159279 -0.25229 -0.054713 -0.019708 -0.040343 -0.10647 -0.069463 0.048078 0.096344 -0.09336 -0.146003 -0.018139 -0.02631 -0.032904 -0.086459 -0.045335 -0.157061 0.059527 0.124077 0.035242 0.105811 0.141567 0.028927 -0.056654 0.120369 -0.045253 -0.134683 -0.011136 -0.107422 0.033179 -0.110269 0.028798 0.023105 -0.00184 -0.028019 0.005641 -0.053557 0.018196 -0.103855 0.082753 -0.094203 -0.002368 -0.033506 0.139915 -0.076129 0.037284 0.046589 -0.037382 0.075549 -0.01302 0.032718 -0.255814 -0.033014 -0.056189 0.096842 -0.117375 0.102939 -0.035592 0.053107 -0.188364 -0.016692 -0.026564 -0.052598 -0.0769 0.004032 0.042514 0.120476 0.035931 0.039158 -0.027936 0.052355 0.025987 0.04741 0.037689 -0.04997 -0.029746 -0.058294 -0.135291 0.169584 0.119242 0.129342 -0.075791
3901632 0.007078 -0.052004 0.032964 0.010631 0.0092 -0.011021 0.043067 -0.130235 0.008389 -0.020851 -0.105641 -0.118424 0.030256 -0.024535 -0.023373 -0.017638 0.047569 0.116003 -0.004137 0.000795 0.024902 0.06393 0.180678 -0.099224 -0.101841 -0.010561 -0.107017 -0.01726 -0.03919 -0.106289 -0.095664 -0.085418 -0.026329 0.044983 0.030651 -0.137069 0.073796 0.098241 0.030545 0.081091 -0.043581 0.076705 0.063475 0.161626 0.021754 -0.038455 -0.042968 0.009823 0.152754 0.0854 -0.034731 0.041817 -0.257801 0.116387 -0.006838 -0.087895 0.004159 -0.08648 -0.055937 -0.108892 -0.114199 0.035994 -0.099791 0.091976 0.072413 0.035981 -0.085198 0.04522 0.034745 -0.146792 -0.021079 -0.158824 0.016659 0.024446 -0.055684 0.102687 -0.020693 -0.117273 0.069043 0.134619 -0.053928 0.018073 -0.014371 0.103557 0.011419 0.108199 -0.008742 0.022034 0.016746 -0.030434 -0.036501 -0.163008 0.052436 -0.104044 -0.07737 0.072083 -0.00749 0.052804 0.034802 0.092548 0.053231 0.087669 -0.019941 -0.1002 0.042402 0.149507 -0.065901 0.195624 0.066628 -0.025187 0.114929 -0.084816 0.041112 0.031224 -0.038492 0.04183 -0.042059 0.010989 -0.0637 -0.002757 0.017001 0.168615 0.119715 -0.041461 0.105151 -0.022053 -0.007327 0.044113 -0.152899 -0.079271 0.061227 0.06066 -0.114541 0.015977 0.050352 0.025941 -0.097024 -0.059771 -0.026806 -0.042158 -0.031992 -0.11321 0.004949 -0.078606 0.105814 -0.067065 0.03269 0.073809 -0.030218 -0.013634 0.008199 -0.052437 0.046271 -0.012529 0.063042 0.018807 -0.057044 0.002681 0.102446 0.00234 0.119791 -0.035854 0.059201 0.015242 -0.088535 -0.035046 -0.078823 0.050436 -0.056885 0.146337 -0.169306 -0.125761 0.00144 -0.007328 -0.065226 -0.037508 -0.086925 -0.059796 -0.106139 -0.061671 0.098281 0.117347 -0.079646 -0.029752 0.077217 -0.061328 -0.039357 0.140323 0.040758 0.004717 -0.119344 0.01304 -0.053156 0.060799 0.010092 -0.038242 0.046164 0.103752 -0.150524 -0.161681 0.102733 -0.025182 0.087139 -0.042455 -0.044417 -0.048026 0.011357 -0.357156 0.014156 0.063457 -0.086119 -0.09623 -0.246168 -0.157546 0.002587 0.010556 0.098154 -0.175949 -0.080439 -0.080775 -0.237766 -0.030699 0.116677 -0.016567 -0.015687 0.044675 0.00939 -0.473438 -0.091146 0.132752 -0.003866 0.082815 0.168422 0.117668 0.081314 0.021823 -0.12908 -0.095808 -0.06926 -0.061937 -0.133361 -0.040426 -0.098507 0.017214 0.017297 -0.063366 -0.168965 -0.01536 -0.022807 -0.036072 0.071506 -0.014441 -0.177333 0.09061 0.252079 0.011704 -0.003014 -0.235867 -0.243489 0.186405 0.272945 0.022192 -0.135759 0.09021 0.106754 0.032783 -0.09625 -0.001764 -0.027318 0.021737 -0.094718 0.046392 -0.095652 -0.155609 0.269924 0.019735 0.306922 -0.00301 0.009587 0.039861 -0.05368 0.100331 0.02319 0.080765 0.076093 -0.008746 0.084007 0.098386 0.249631 -0.12963 0.070444 -0.178076 0.066037 0.207106 0.125514 -0.090975 0.219162 -0.06396 -0.212949 -0.187294 -0.1553 -0.006698 0.218468 0.072169 -0.099803 0.204325 -0.012988 -0.126097 -0.124053 0.093004 -0.018497 -0.153062 0.021014 0.077142 -0.068981 -0.156815 0.214433 -0.10598 -0.006703 -0.069351 0.051763 0.116477 0.191075 -0.035924 -0.078151 -0.150018 0.084159 -0.07559 -0.20798 0.355355 0.230378 -0.027768 0.073603 -0.070478 0.019603 0.011541 -0.146761 0.007335 0.004766 0.0537 -0.032634 0.279387 -0.019286 0.041237 0.07403 -0.204629 -0.12261 -0.168282 -0.209837 0.332687 -0.034334 0.061562 0.311592 -0.011545 -0.022761 0.004937 0.085839 -0.219296 0.052451 0.018429 0.31013 0.016762 -0.000783 0.070953 -0.002681 0.051563 0.062249 0.148874 0.192683 -0.116986 0.041786 0.117977 -0.134486 -0.12484 0.007205 -0.177556 -0.195257 0.049891 -0.029795 -0.006995 -0.102122 -0.029237 0.099868 0.013547 0.051366 0.068705 0.056541 -0.040016 0.018434 -0.14848 -0.010287 -0.064117
3901630 -0.065872 0.233583 -0.022316 0.016378 -0.018825 0.019991 -0.00833 0.001065 -0.066131 0.043689 0.125234 -0.050758 0.006099 -0.078698 -0.118149 -0.056657 0.018252 0.006385 0.09648 0.029103 -0.085775 0.040961 -0.035541 -0.071782 -0.015544 -0.088903 -0.006993 0.032844 -0.03756 -0.049611 -0.040172 -0.08628 0.00155 0.155215 -0.032206 0.085595 0.013827 0.101636 -0.058417 -0.195794 0.054705 0.045818 0.093598 0.020877 0.054096 -0.019337 0.041651 -0.060266 0.076051 -0.002279 0.006489 0.034354 0.111284 -0.000721 0.097656 0.026074 0.092518 -0.010347 -0.015847 -0.117413 -0.028253 0.024533 -0.053444 0.023926 0.043868 0.020082 -0.017857 -0.009767 -0.054326 0.023289 -0.062259 -0.033545 -0.000936 -0.000272 -0.025908 0.099505 -0.066991 -0.04129 0.067177 -0.040912 -0.144 -0.025824 0.031749 0.012754 -0.049724 0.015547 -3.4e-05 -0.031311 -0.036847 -0.075552 0.067314 0.013747 0.142869 0.019556 0.041718 0.015183 0.048388 0.006344 0.014313 -0.030395 -0.013129 0.076554 -0.061274 -0.084481 -0.0064 0.023997 -0.065335 -0.056051 0.017456 0.008197 -0.014463 -0.082555 0.083564 -0.0196 -0.008463 0.016677 0.016554 -0.065712 -0.043305 0.054792 0.063127 0.041337 0.021832 -0.053756 0.047796 -0.024722 0.026211 0.00235 -0.064955 -0.032884 -0.057079 0.073519 -0.012567 -0.071604 0.067602 0.100949 -0.048942 -0.037534 -0.038204 -0.021745 -0.025039 -0.002841 0.099086 -0.060166 0.086753 -0.00147 0.17354 0.026989 -0.066736 0.008181 -0.078662 0.025099 -0.001412 -0.058019 0.043918 -0.079244 -0.007873 -0.121309 0.016791 0.034225 -0.032143 -0.042113 0.139198 0.064709 -0.026236 0.108422 0.030704 0.022152 -0.091984 0.124674 0.099964 -0.054115 0.049879 -0.042619 0.049599 -0.120785 -0.016445 0.001748 -0.070474 0.096558 0.063799 0.158638 -0.125213 0.042891 -0.147032 -0.039367 -0.029008 0.048606 0.02239 -0.011331 0.004696 -0.073042 -0.065774 0.038944 -0.006908 -0.01252 0.083023 -0.20599 -0.085891 -0.000252 0.114284 -0.045907 0.02734 -0.184012 0.265461 -0.018732 -0.036592 0.062903 -0.031719 -0.005248 -0.03198 -0.218956 0.05097 0.211505 0.076829 -0.141906 -0.431995 -0.118613 -0.102791 0.086714 0.10196 -0.079327 0.061296 0.018316 0.063089 0.074039 0.003007 -0.019206 0.011239 -0.020842 -0.044725 0.044643 -0.002552 0.036147 0.078935 -0.018023 0.16652 0.027186 0.031867 -0.00063 -0.030045 -0.110071 -0.088308 0.114593 -0.020013 -0.089911 -0.029474 0.059735 0.024168 -0.005513 0.089397 0.053643 0.167404 0.063483 -0.029118 0.091853 0.151292 -0.075446 -0.044895 -0.071497 0.071373 0.004214 -0.145116 -0.219846 -0.113299 -0.026783 0.280722 -0.007083 -0.015674 0.059797 0.108529 0.108398 0.024274 0.030888 -0.024674 0.025995 0.028624 0.100145 -0.18649 0.052808 -0.130484 0.049056 0.188358 0.089661 0.049691 -0.055697 0.026033 -0.103941 -0.202643 -0.098135 0.086146 0.062663 -0.14838 0.08674 0.043797 0.084054 0.037514 -0.131686 -0.293259 0.016504 0.068088 0.101849 -0.018474 0.037299 -0.040109 -0.005523 -0.000645 0.092688 -0.07814 -0.102722 -0.193963 0.091544 -0.233933 0.024942 -0.019395 -0.097652 0.2069 0.022012 0.034963 -0.053947 0.049643 -0.267075 -0.04833 -0.056616 -0.127333 -0.004235 -0.161561 0.091008 6.3e-05 -0.085207 -0.002374 0.140722 -0.055483 -0.128948 0.069449 -0.023487 -0.008121 0.090741 0.032224 -0.143934 0.224894 0.091866 0.054524 0.043971 -0.013991 0.036236 0.082118 0.062203 0.105843 -0.183589 -0.065964 0.030837 -0.033648 -0.021632 -0.069276 -0.073119 0.039563 -0.063623 0.066231 -0.12151 -0.024942 -0.009901 -0.024568 -0.091255 0.087166 -0.04372 -0.188043 -0.10296 -0.069782 -0.144447 0.028894 0.075843 -0.016474 -0.085646 -0.016219 0.018284 -0.065677 0.224596 0.018267 -0.015449 0.006865 0.156193 0.022126 0.007971 0.072505 -0.020781 -0.105991 -0.108561 -0.036707 0.229938 0.000315 -0.037103
3901627 0.042998 0.074325 0.014919 -0.107801 -0.049514 0.015339 0.01788 0.114195 -0.034056 0.037081 0.119278 -0.184409 -0.118498 -0.089063 0.007684 0.108799 -0.06759 -0.084264 0.183071 0.093849 0.148228 -0.006696 -0.044587 -0.080892 -0.045867 0.00975 -0.086761 -0.007993 -0.047371 -0.145648 -0.052282 -0.072656 0.026867 0.142817 0.176968 0.025495 0.152685 0.105381 -0.025992 -0.00691 -0.042781 0.067059 0.087532 -0.26777 0.132677 0.265097 0.02039 -0.156907 -0.051376 0.063489 0.05046 0.149179 -0.369436 0.005621 0.072145 -0.100162 0.08052 -0.065041 -0.364036 0.005527 -0.076887 0.102856 -0.055896 -0.003567 -0.333651 0.10228 -0.121 0.06313 -0.073456 0.159601 0.082036 0.026854 0.083309 0.037759 -0.047993 0.171225 0.085617 0.009671 -0.055333 -0.016819 -0.067781 0.202273 0.005368 0.272986 -0.038409 0.056393 0.093101 -0.019003 0.05126 -0.038669 -0.039648 -0.384029 0.346813 -0.057366 0.215849 0.008577 -0.06555 -0.076663 0.194526 0.081913 0.107408 -0.015021 0.008944 -0.013238 0.12127 -0.032452 -0.147211 -0.063237 -0.130803 0.040246 0.081155 -0.082135 0.034681 -0.29089 0.176443 0.134126 -0.094558 0.045223 -0.025923 0.1794 0.044322 -0.173354 0.032756 -0.169189 0.003397 -0.11432 0.137915 0.055184 -0.179054 -0.225166 -0.006381 0.17909 -0.044197 0.17302 -0.093299 0.186717 -0.038094 -0.071117 0.009556 -0.063309 -0.030477 0.001614 0.113646 0.003198 -0.119041 -0.1508 0.116295 0.218487 -0.02731 0.349387 -0.335667 0.050645 0.016178 -0.257183 0.017684 -0.004767 0.008203 0.0387 0.003161 0.029772 0.070031 -0.088277 -0.125743 0.132537 0.010243 0.294512 -0.08078 0.066555 -0.360132 0.155857 0.044786 -0.195738 0.079895 -0.047028 0.168799 -0.245879 -0.094567 -0.081541 -0.055923 -0.364406 0.056513 0.100205 -0.06315 0.027838 0.139508 0.043558 -0.085203 0.072205 0.099537 0.065774 0.04947 -0.100872 -0.159595 0.095941 0.024921 0.035981 0.060872 -0.07258 -0.15376 0.023985 0.194911 -0.172437 0.124412 0.043405 0.139473 0.00059 -0.146142 0.025691 -0.041927 0.000966 -0.052139 0.015567 -0.069794 -0.050657 0.030408 0.090974 -0.079909 -0.067837 -0.110197 -0.141934 -0.107589 -0.032228 0.031663 0.04688 0.008161 0.081448 0.116399 -0.011943 -0.059991 0.021454 -0.033529 0.025729 -0.071667 0.033587 -0.082729 0.019458 0.178929 -0.037279 0.20953 -0.159079 0.146648 -0.070352 -0.166154 0.17167 -0.091318 0.095246 0.003961 0.034862 -0.043346 -0.081128 0.086804 -0.089417 -0.016053 0.080908 0.115469 0.064671 -0.143146 -0.069756 -0.120888 0.003756 0.086847 0.076435 -0.234847 0.049468 -0.022254 -0.000659 0.017355 -0.107165 -0.079213 0.120803 0.154405 -0.04425 0.02726 0.024845 0.083717 0.025132 -0.04462 0.070974 -0.061334 0.033287 0.031694 0.020574 0.065299 0.169646 -0.058101 -0.057311 -0.017364 -0.088807 -0.014665 -0.053536 0.180631 -0.013579 -0.21572 -0.032355 0.015077 0.139038 -0.010323 -0.072235 -0.151218 0.048483 0.040633 -0.045026 0.054474 0.027814 -0.062059 -0.168149 -0.055697 -0.136833 0.059055 -0.174485 -0.220371 0.105145 -0.038039 0.071094 0.081403 -0.093087 0.14419 -0.036148 -0.067937 -0.059879 0.053791 -0.216794 -0.118301 0.118134 -0.135486 -0.066943 -0.056553 0.122318 -0.065545 0.036619 -0.165453 0.017794 0.006412 -0.091775 -0.074558 -0.050345 -0.086254 0.098164 0.144944 0.049153 0.120193 0.079431 0.048446 -0.142133 0.172555 -0.014165 0.117747 0.122625 0.095 -0.084679 -0.004775 0.049017 0.043085 0.046742 0.046196 -0.175973 -0.097679 -0.158419 0.051832 -0.028972 0.053375 0.027884 -0.078988 -0.037449 0.159079 0.053023 -0.098227 -0.220004 -0.061035 -0.138337 -0.009342 0.00038 0.038617 -0.136738 0.031388 0.021437 -0.031379 -0.034407 0.187787 -0.069379 0.024246 0.143913 0.07831 0.137425 0.000513 -0.112443 -0.063108 0.109312 0.032811 0.064231 -0.011277 0.09948
3901626 0.001951 0.039404 0.007045 -0.071296 -0.144392 -0.009815 0.119421 0.12588 -0.033675 0.116799 -0.081725 -0.084418 -0.058549 -0.054911 -0.077103 0.115441 0.040881 0.107665 0.158114 0.209954 -0.07708 -0.078351 0.158912 -0.062018 -0.017262 -0.113418 -0.111044 0.062402 -0.039831 -0.107389 -0.051193 -0.05061 -0.04998 0.043438 0.059978 -0.20024 0.07077 0.078913 -0.127324 0.167554 0.081219 0.105761 0.179476 -0.03555 0.188675 -0.025544 -0.067891 0.139166 0.114223 0.05437 0.320151 -0.016141 -0.223107 -0.335305 -0.188446 0.018857 -0.012975 -0.11138 -0.267213 -0.125835 -0.039572 0.179291 0.032516 0.084073 0.02144 0.035726 -0.17883 0.002366 0.010563 -0.084326 0.038666 -0.142535 0.052261 -0.039414 -0.085716 0.098166 -0.224187 -0.107702 -0.020973 0.036589 0.002285 -0.012376 -0.077356 0.335487 0.012231 -0.028122 -0.182535 -0.065557 -0.067499 0.1633 0.046342 -0.239912 0.28654 -0.102064 0.169422 0.218649 -0.003635 0.054269 -0.07487 -0.056392 0.101222 0.256819 0.083235 -0.160727 0.122961 0.114854 -0.15372 -0.204112 -0.06789 -0.004574 0.150593 -0.1365 0.117294 -0.252951 -0.09239 0.026108 -0.000768 -0.024579 -0.029197 0.105568 0.155387 0.082465 -0.021232 -0.120351 0.156371 -0.060678 0.006846 0.125138 -0.046486 -0.126206 -0.149684 0.162537 -0.16277 0.055323 0.015397 0.219173 -0.108497 -0.197642 -0.052419 -0.060368 -0.01057 -0.068772 0.09197 -0.09179 0.008078 -0.193232 0.048235 0.163193 -0.148727 -0.146645 -0.125046 -0.068189 0.023237 -0.116617 0.030527 0.080519 0.002573 -0.139351 0.151491 0.13394 0.059549 0.109021 0.077583 0.088494 -0.02221 0.038168 -0.033305 -0.000531 -0.223275 0.193907 -0.10811 -0.144868 0.137876 0.024992 -0.00258 -0.184978 -0.106495 -0.274372 -0.16317 -0.139126 0.167949 0.182058 -0.084248 0.116973 0.075137 0.009335 -0.048874 0.10579 0.115262 -0.071075 0.064066 -0.102842 -0.131941 0.074711 -0.07566 -0.026549 -0.042818 -0.1062 0.04599 0.095451 0.144789 -0.077259 0.076831 -0.050221 0.108752 0.054138 -0.021264 -0.027008 0.016408 0.035081 -0.002827 -0.149681 0.093147 0.048952 -0.025668 0.038707 -0.119831 -0.068451 -0.077523 0.021628 0.019774 -0.004459 0.09998 0.020367 0.133774 0.019693 -0.066425 -0.007918 -0.043306 0.000821 -0.025694 0.035156 0.058963 -0.016406 0.059138 -0.045099 0.063376 -0.041028 -0.020239 0.053002 0.020099 -0.038718 -0.150846 0.045017 0.045874 -0.078551 -0.018679 0.06917 0.02959 0.000632 -0.02235 0.099775 0.035544 0.022115 0.017623 -0.065758 0.073815 -0.054778 -0.082178 0.063332 0.125414 0.058199 -0.125415 -0.064374 -0.004191 -0.04125 0.068449 -0.00655 -0.005026 0.012151 0.040125 0.118999 -0.06165 0.031187 0.076879 0.037089 0.140365 0.050784 -0.111702 0.015302 -0.10864 0.077568 0.068825 0.135151 0.000806 0.011279 0.012297 0.047164 -0.011318 0.023926 0.083451 0.047765 0.094469 0.013996 0.053079 0.065387 0.081121 -0.021392 -0.10055 0.068691 -0.0133 -0.021564 0.010692 0.159174 0.013442 0.041739 0.045992 -0.04659 -0.091027 -0.096615 -0.133969 0.133975 -0.086214 0.086918 -0.001664 -0.118913 0.125452 -0.029877 -0.049276 -0.035746 0.010531 -0.058226 0.043537 -0.058516 -0.126242 -0.049976 -0.014758 0.013177 -0.001736 -0.029218 -0.01061 0.032541 -0.034332 -0.116417 -0.026843 0.049583 -0.006536 0.11192 -0.065052 -0.026952 0.058118 0.213219 0.016618 -0.022632 0.085397 -0.004747 -0.034429 0.036414 -0.070354 -0.010746 0.019656 0.096102 -0.002766 -0.06394 -0.098171 -0.106954 -0.008514 -0.118173 0.034634 -0.059185 0.076245 0.003695 0.006801 0.000783 -0.061249 0.031113 -0.10272 0.000499 0.019616 -0.074829 0.031001 0.046144 -0.106252 -0.112879 0.039256 0.062751 -0.157019 -0.042817 -0.080986 -0.027155 -0.021897 0.033041 0.031098 0.002411 -0.020548 -0.038895 -0.038387 -0.007519 -0.016371 0.188699 0.094828 -0.001739
3901623 -0.011387 -0.001103 -0.007894 -0.037187 -0.1016 0.091843 0.016789 0.122154 -0.096744 0.065697 0.220393 -0.054469 -0.027449 0.033227 -0.090601 -0.133405 -0.186656 -0.079872 0.172993 -0.111204 0.014541 0.034079 0.045839 -0.071906 -0.087003 -0.076624 -0.092035 0.017978 -0.00143 -0.150553 -0.068846 -0.07577 0.0225 0.077831 0.056205 0.171897 0.086962 0.11488 -0.117039 0.027223 0.012117 0.061515 0.151558 -0.2203 0.07999 0.380436 -0.018924 -0.195366 -0.104387 0.001425 0.112379 0.044454 -0.033502 -0.02983 0.159908 0.056656 0.102577 0.004153 -0.382424 -0.040504 -0.02153 0.164102 -0.052087 0.036905 -0.422552 0.146234 -0.108347 0.020652 -0.013499 0.039806 -0.076535 0.008339 -0.082433 0.050716 -0.03031 0.138963 0.131492 -0.057987 -0.035915 -0.059724 -0.003209 0.150951 0.005747 0.152824 0.023181 0.07855 0.060507 0.039705 0.041844 0.001692 0.040771 -0.416561 0.345816 -0.014616 0.222138 0.045501 -0.061066 0.026951 0.094999 -0.158531 -0.011357 -0.031874 -0.258346 -0.038474 -0.004986 0.020093 -0.059 -0.056815 -0.211099 0.040927 -0.02567 -0.100887 0.090892 -0.253935 0.169433 0.294561 -0.017402 0.029326 0.012363 0.158816 -0.016064 -0.005573 0.118011 -0.134939 0.058573 -0.041572 0.118848 -0.07089 -0.182146 -0.204301 -0.109786 0.197086 0.183217 0.23262 -0.062695 0.216438 -0.061022 -0.01876 0.006949 0.028721 -0.183688 -0.123765 0.048152 0.058959 0.002411 -0.120397 0.162628 0.15402 -0.056968 0.498313 -0.290654 0.197795 0.049985 -0.173983 0.087987 -0.008437 0.000184 -0.040267 -0.069427 -0.027598 -0.060492 -0.070153 -0.023167 0.09816 -0.005109 0.298729 -0.087193 0.043442 -0.321893 0.09851 0.176846 -0.15086 0.020433 -0.116166 0.087646 -0.239471 -0.100031 -0.077921 -0.046701 -0.312205 0.118386 0.05561 -0.041377 0.021058 0.135538 0.007895 -0.083422 0.040953 0.042423 0.073818 -0.034241 -0.071585 -0.189255 -0.002575 0.00326 -0.078285 0.385271 0.12127 -0.101428 0.245476 0.139099 -0.077976 0.015922 -0.146959 0.028482 -0.044965 -0.047043 0.024656 0.011726 0.035282 -0.393428 0.006382 0.106917 0.238398 0.106405 -0.121373 0.109381 0.08381 -0.056192 -0.072496 0.004223 -0.048057 0.191507 0.149874 0.186783 -0.018183 -0.042139 0.050458 0.25731 0.169021 0.037975 0.024034 0.021572 0.010759 0.022021 -0.035701 0.005115 -0.071643 -0.025406 -0.06316 0.134314 -0.066947 -0.035694 0.079996 -0.292192 -0.068826 0.004902 0.022651 0.224392 -0.026008 0.071432 -0.04506 0.041223 0.061692 0.031364 0.069429 0.104787 0.072221 0.05528 -0.058593 0.066462 0.095414 0.094894 -0.082957 -0.144993 0.006533 0.00345 -0.212251 -0.054827 0.023032 0.012838 0.036277 0.002633 -0.076303 0.075287 -0.261106 0.103398 0.134866 -0.087776 0.035387 -0.018203 0.032672 0.019724 -0.087632 0.088746 -0.007782 0.014627 -0.049612 -0.024337 0.009335 -0.090563 0.000526 -0.049314 -0.029113 -0.094669 0.047083 0.103596 -0.112548 0.056535 0.049174 -0.079004 0.01025 -0.120642 0.034815 0.039013 -0.073841 0.023641 -0.049072 -0.192155 -0.089195 0.166248 -0.287443 0.02851 0.012545 -0.149586 -0.019816 -0.025148 0.066094 -0.021173 -0.136836 -0.096447 0.021309 0.002473 0.06775 -0.070949 -0.208335 -0.241665 0.053512 -0.140502 0.126869 0.389918 0.090212 0.084715 0.126097 0.101664 0.016055 0.001934 0.055953 -0.037421 -0.10762 -0.01621 0.088179 0.007003 -0.253729 -0.040376 -0.020801 -0.030451 -0.094214 0.00935 -0.128503 0.003974 0.099821 -0.072406 -0.030708 -0.150288 0.080047 0.020486 0.052197 0.056165 -0.076427 0.126283 -0.054405 0.114328 -0.217578 0.068184 0.138013 0.034433 -0.169312 -0.027717 -0.183233 -0.157615 -0.089707 -0.13192 0.011416 0.057846 -0.028786 0.142756 0.254722 0.092727 0.046721 0.028698 0.027102 0.085194 0.063773 0.085126 -0.096768 -0.027142 -0.199777 0.156797 0.092305 0.172052 0.015466
3901622 0.025547 0.113171 0.086531 -0.09848 -0.028018 0.080187 -0.110929 0.084102 -0.044496 0.022403 0.240062 -0.099713 -0.11469 -0.087974 -0.061111 0.083926 -0.052155 -0.101266 0.264426 -0.07277 0.07024 0.022114 -0.068844 -0.033287 0.105614 0.013535 -0.069258 -0.098482 -0.09527 -0.044276 0.002888 -0.07819 0.038452 0.009175 0.121235 0.147162 0.171261 -0.002122 -0.083194 -0.033796 -0.014729 -0.003891 0.077934 -0.345384 0.084362 0.385438 0.122523 -0.183442 -0.070066 0.067367 0.090892 0.143938 -0.117388 0.083982 0.158819 -0.084202 0.076591 0.027308 -0.353446 0.093019 -0.080089 0.171926 -0.081939 -0.021006 -0.400729 0.108582 -0.128373 -0.040367 -0.007446 0.236178 -0.032189 0.041823 -0.017483 0.10928 0.018397 0.185693 0.111478 -0.05847 -0.008403 -0.075569 -0.010775 0.180484 -0.017036 0.101268 -0.028356 0.062751 0.094259 -0.025204 0.09691 -0.103752 -0.070383 -0.357142 0.426304 -0.001043 0.16007 0.066557 -0.016735 -0.122233 0.104779 -0.035356 0.096183 -0.018128 -0.061499 0.082655 0.019667 -0.029165 -0.201332 -0.058902 -0.173107 -0.007592 0.021939 -0.048465 0.07786 -0.279555 0.239104 0.049097 -0.134196 0.008402 -0.030816 0.178009 0.105134 -0.130188 0.047505 -0.115608 0.039476 -0.104529 0.172262 0.043413 -0.107791 -0.179754 0.006919 0.132079 0.001316 0.199464 -0.088791 0.23297 -0.042984 0.05717 -0.000599 0.045954 -0.184001 -0.047157 0.038463 0.080084 -0.093353 -0.026607 0.06418 0.12205 -0.06348 0.512172 -0.355424 0.15986 0.024531 -0.255277 -0.037336 -0.00566 -0.01364 -0.008256 -0.177872 -0.03424 -0.002827 -0.040297 -0.115858 0.199937 -0.001184 0.406891 -0.060395 0.04986 -0.374979 0.12779 0.116835 -0.225288 0.113381 -0.129834 0.258888 -0.255923 -0.073259 -0.060168 0.079607 -0.43626 0.09332 0.07174 -0.00859 0.093756 0.143392 0.016134 -0.174826 -0.037507 0.07708 0.102188 0.042984 -0.245854 -0.173766 0.095134 0.12876 0.011782 -0.027059 -0.182441 -0.201532 -0.015962 0.205372 -0.073699 0.0828 -0.011561 -0.025751 -0.028208 0.048822 -0.042795 -0.007175 0.040671 -0.052908 -0.079238 -0.031376 -0.090178 0.000984 0.104821 0.053594 0.020104 -0.129268 -0.06666 0.022379 -0.039999 0.09675 0.037399 -0.038681 0.013225 -0.017248 -0.01238 -0.096402 0.056496 -0.049792 0.103028 -0.00212 0.054829 0.069392 0.081303 0.075928 0.080857 -0.023102 0.017107 0.146911 0.026285 -0.148061 0.010032 0.002345 0.021637 0.015274 -0.043848 -0.019062 -0.01056 -0.126775 -0.038164 0.027706 0.084208 0.062558 0.026748 -0.045206 -0.116272 0.026046 0.006581 0.206331 0.019544 -0.145866 -0.140721 -0.060164 0.020481 0.070156 -0.047486 0.02463 0.171421 0.086031 0.078966 -0.081226 -0.005545 0.079737 -0.022458 0.109369 0.113554 -0.080785 0.024685 -0.052291 0.009695 0.005514 -0.072922 -0.036583 0.03354 0.060392 -0.047351 -0.079925 -0.085372 0.042865 -0.071587 0.027278 -0.03522 0.068594 0.023927 0.050049 -0.061929 -0.030894 0.036735 0.109281 -0.061743 0.01502 0.129671 -0.051515 -0.050911 -0.009352 -0.018563 -0.087564 -0.033027 0.002116 -0.042768 -0.063106 -0.03536 -0.063749 -0.016864 0.075624 -0.051578 0.07556 -0.013072 -0.093784 -0.142368 -0.025058 -0.024462 -0.041453 -0.0658 -0.014948 -0.058131 0.125766 0.109918 0.003174 0.034928 0.071666 -0.023261 0.063654 -0.014285 -0.168273 0.088038 -0.050885 -0.049931 0.254278 0.163721 0.047562 0.027564 0.030536 -0.0706 -0.11693 0.021798 0.013179 -0.019358 -0.079578 0.07633 -0.120784 -0.028222 -0.12642 -0.072833 0.044908 -0.116699 0.047082 -0.087772 -0.015468 -0.099326 -0.02644 -0.024429 0.118319 0.083934 -0.038357 -0.025009 -0.064982 -0.232354 -0.004195 -0.045916 -0.114984 -0.127609 0.046836 -0.083841 0.076757 -0.079771 0.015108 0.138744 -0.079395 0.008484 0.053462 0.032158 -0.0899 -0.014562 -0.052924 -0.18452 0.02487 0.140339 0.05554 -0.005517
3901621 0.010807 0.033643 0.00665 -0.043081 -0.141011 -0.018459 0.146414 0.189828 -0.046454 0.127131 -0.077768 -0.081102 -0.051087 -0.015853 -0.0751 0.119419 0.025289 0.090669 0.109748 0.199868 -0.114079 -0.024612 0.162966 -0.033771 -0.053972 -0.119821 -0.107235 0.040883 -0.035844 -0.099247 -0.056604 -0.036666 -0.048377 0.023829 0.002681 -0.206606 0.066149 0.074129 -0.124724 0.18511 0.062748 0.079306 0.16454 -0.072842 0.148419 0.000503 -0.060698 0.147711 0.039309 0.056624 0.338565 -0.018718 -0.222849 -0.323227 -0.181846 0.02617 -0.012641 -0.094946 -0.262548 -0.117602 -0.023324 0.159133 0.017812 0.063407 0.021881 0.01973 -0.180832 0.015274 0.028155 -0.066424 0.000902 -0.168751 0.062292 -0.037689 -0.076629 0.125703 -0.24264 -0.108242 -0.017016 0.019444 0.036879 0.01241 -0.084405 0.290921 0.014599 -0.045355 -0.102267 -0.079305 -0.043082 0.134696 0.028623 -0.247077 0.293544 -0.076684 0.156855 0.253965 0.026706 0.040177 -0.076931 -0.042846 0.084648 0.247517 0.08122 -0.141378 0.125473 0.14247 -0.157016 -0.210942 -0.085437 -0.010352 0.200326 -0.115564 0.120305 -0.248083 -0.089297 0.03774 -0.011228 -0.009417 -0.023869 0.08759 0.128199 0.103189 0.003234 -0.139152 0.136531 -0.056503 0.00765 0.125347 -0.087314 -0.102771 -0.157723 0.208663 -0.198775 0.087249 0.025862 0.198528 -0.086301 -0.185154 -0.010443 -0.070577 0.010855 -0.068038 0.07321 -0.090166 0.052172 -0.180196 0.086427 0.183281 -0.118001 -0.132391 -0.108107 -0.030712 -0.009739 -0.104949 0.038719 0.101742 0.008359 -0.181635 0.127333 0.129935 0.036229 0.15109 0.044628 0.084943 -0.002163 -0.012489 -0.055512 -0.004926 -0.185773 0.181875 -0.092816 -0.126762 0.146796 0.060013 -0.010232 -0.138454 -0.107882 -0.239744 -0.159297 -0.136469 0.141647 0.169821 -0.067993 0.139883 0.074913 0.01514 -0.060484 0.114727 0.127978 -0.061566 0.063182 -0.078321 -0.132999 0.059835 -0.063425 -0.019333 0.028454 -0.200139 -0.174157 -0.027585 0.085225 -0.077269 0.060217 0.018587 0.070876 -0.042134 -0.043172 -0.052941 -0.017175 -0.033299 -0.020579 -0.01724 0.063592 0.071735 0.08328 -0.073428 -0.15586 -0.088775 -0.04842 -0.066469 -0.125022 -0.034691 0.094887 0.01454 0.053303 0.104918 0.049199 -0.043468 -0.084286 -0.010528 -0.039048 0.019101 0.0853 0.076776 0.064864 0.03103 0.146709 -0.065916 0.041812 -0.036777 0.095044 -0.109251 -0.119146 0.093985 0.045672 -0.052987 -0.034051 -0.002732 0.093967 -0.047075 0.144539 -0.087185 0.108237 0.050776 0.006902 0.080636 0.084041 -0.029639 -0.024339 -0.078428 0.115033 -0.01226 0.148141 -0.105817 -0.013757 -0.044429 0.121373 -0.060908 -0.080236 0.072228 0.088032 0.165376 -0.009042 0.079407 0.026908 -0.060074 0.043499 0.096934 -0.075874 0.028731 0.133497 0.048271 0.024004 0.067359 0.068761 0.02636 -0.024641 -0.059631 -0.136995 0.040913 0.12478 -0.035673 0.035199 -0.015652 0.034323 0.005671 0.049997 -0.066191 -0.199658 0.004059 0.005446 0.087099 -0.050761 0.057328 0.013399 0.025501 -0.009217 -0.030211 -0.066824 -0.047757 -0.08413 0.037825 -0.172114 -0.045896 -0.007089 -0.107893 0.084798 -0.003418 0.027088 -0.034131 -0.033086 -0.142407 -0.066952 -0.011544 -0.079825 -0.147221 -0.14132 0.083622 -0.023268 0.000874 0.037376 0.06908 0.038742 -0.027296 0.011704 -0.006387 0.023603 -0.007177 -0.032859 -0.050227 0.170877 0.01848 -0.044989 -0.057779 0.110767 0.0048 -0.096539 -0.021468 0.035568 -0.035198 -0.02383 -0.043369 -0.01407 -0.091521 -0.073109 -0.007017 -0.082747 -0.022577 0.006022 -0.089735 0.04752 -0.035421 0.104896 0.006844 0.023005 0.058763 -0.054891 -0.024047 -0.025172 -0.110954 0.04299 -0.046126 -0.009717 -0.106109 0.046755 -0.03253 -0.017782 0.002139 0.026754 -0.010199 0.063568 0.066441 0.072197 0.071686 0.008567 -0.020896 -0.066852 -0.095793 0.083588 0.172032 0.062191 -0.030696
3901620 0.011481 0.006614 0.015213 -0.02575 -0.152087 -0.048901 0.164682 0.181313 -0.049451 0.14322 -0.099923 -0.074341 -0.045773 -0.013562 -0.057521 0.118505 -0.004207 0.136132 0.085582 0.201397 -0.113371 -0.01088 0.245351 -0.085505 -0.017642 -0.133897 -0.108562 0.024314 -0.032012 -0.119317 -0.07269 -0.000553 -0.046142 -0.001486 0.010966 -0.224317 0.073421 0.107157 -0.113357 0.199212 0.069792 0.102541 0.148327 -0.049913 0.15226 -0.02675 -0.047334 0.146517 0.040326 0.064808 0.301073 -0.049977 -0.212108 -0.34852 -0.194898 0.024933 -0.017523 -0.112763 -0.25735 -0.11619 -0.047679 0.154549 0.008774 0.110566 0.018064 0.028378 -0.166959 0.024641 0.038501 -0.090823 0.015764 -0.174584 0.077266 -0.040545 -0.087911 0.126091 -0.284761 -0.175159 0.001029 0.081309 0.034365 -0.000746 -0.079059 0.299618 0.022503 -0.034254 -0.123141 -0.096674 -0.040765 0.13545 0.041846 -0.241184 0.273544 -0.101323 0.132338 0.272385 -0.027163 0.042842 -0.097886 -0.050074 0.057514 0.256319 0.068409 -0.138964 0.114772 0.134517 -0.140273 -0.216737 -0.094719 -0.031214 0.223196 -0.105343 0.1284 -0.228524 -0.105485 0.035737 -0.005572 0.025847 -0.038001 0.087809 0.117428 0.151341 0.031084 -0.102034 0.151547 -0.066309 -0.006298 0.118245 -0.065492 -0.109687 -0.154587 0.205083 -0.240375 0.062473 0.03634 0.206158 -0.077063 -0.214988 0.039431 -0.063359 -0.007627 -0.06351 0.06865 -0.094738 0.055716 -0.183071 0.056753 0.185711 -0.1185 -0.147502 -0.040872 -0.01779 0.041948 -0.083942 0.036236 0.113219 0.014862 -0.171864 0.157986 0.136862 0.032762 0.130434 0.023816 0.06167 -0.007296 -0.028264 -0.102859 -0.02227 -0.139781 0.174449 -0.107172 -0.147723 0.151771 0.079173 0.021422 -0.163474 -0.104427 -0.240972 -0.154796 -0.116543 0.155144 0.16343 -0.072648 0.124411 0.07054 -0.005713 -0.059673 0.124756 0.157239 -0.06967 0.06274 -0.079792 -0.124642 0.023192 -0.065431 -0.063973 -0.115247 0.07022 -0.189077 0.086721 0.088346 -0.052119 0.069665 0.073519 -0.039198 -0.047106 0.024371 -0.097585 -0.072972 0.050971 -0.081044 -0.022185 -0.081579 0.098693 0.025407 0.077107 0.074424 0.017024 -0.185645 -0.073775 -0.049752 -0.147652 0.102708 0.070716 -0.033054 0.089694 -0.080869 -0.048045 -0.02665 0.135192 -0.036293 0.051622 -0.051378 0.0601 0.057425 0.049868 0.020556 0.213728 -0.034788 -0.028189 0.032479 -0.104513 -0.063977 0.101589 -0.029951 0.092408 -0.0625 0.04214 0.021664 -0.027866 0.029863 0.010162 -0.289236 -0.028027 0.104188 0.012986 -0.018317 -0.121526 -0.0099 -0.008164 0.139049 0.115104 -0.028604 0.043117 0.037982 0.055651 0.008962 -0.015793 -0.055311 0.155745 -0.028592 -0.16716 0.049253 -0.093705 0.161536 -0.119031 0.10099 0.155866 -0.063776 0.012914 -0.013965 -0.04486 0.141615 -0.005075 -0.030902 0.040416 0.075571 -0.04438 0.186946 -0.042358 0.068804 -0.16446 0.02128 -0.024299 0.069749 0.011452 0.139152 -0.033968 -0.103336 0.054 0.016579 -0.034327 0.149786 -0.011789 -0.008184 -0.053103 -0.004563 -0.13833 -0.003246 -0.100807 -0.059462 -0.023619 -0.031761 -0.046019 0.055396 -0.12677 0.135195 -0.231983 0.011064 -0.000605 -0.066362 -0.088368 0.004435 -0.044783 -0.158291 -0.056163 -0.141665 0.101256 0.060266 0.092822 0.119572 0.015525 0.028796 0.079973 -0.09449 0.028152 -0.263242 0.028964 0.001134 -0.012721 -0.014154 0.144199 -0.022726 0.115895 0.108305 -0.38557 -0.171023 0.04496 -0.107285 0.063583 0.001335 0.093453 0.031938 0.115798 0.040995 0.008816 0.026651 -0.158221 0.02704 -0.000289 0.175719 -0.011142 -0.034539 0.06875 0.119119 0.075727 0.125625 0.026636 0.110662 -0.197468 0.310084 -0.223206 -0.094525 -0.103823 0.030271 -0.024432 0.055382 -0.041332 0.027222 0.077377 -0.017837 0.102723 0.001418 0.112957 0.069015 0.025465 -0.028133 -0.16508 -0.022964 0.04682 -0.016369 0.010244
3901619 0.027792 -0.077125 0.006926 -0.075444 -0.14079 -0.023219 0.173148 0.233754 -0.060231 0.149823 -0.130017 -0.097202 -0.082612 0.025627 -0.023288 0.143601 0.005872 0.168495 0.052161 0.224992 -0.044154 -0.035085 0.26244 -0.080805 -0.03998 -0.111406 -0.128209 0.081207 -0.018468 -0.125482 -0.077715 -9.6e-05 -0.066482 0.013348 -0.000342 -0.301865 0.07792 0.086889 -0.120493 0.19239 0.064968 0.101166 0.170646 -0.019151 0.154843 -0.064394 -0.049288 0.163207 0.002415 0.065736 0.265457 -0.029154 -0.256001 -0.379255 -0.183723 0.023589 0.01029 -0.096493 -0.238103 -0.146124 -0.040611 0.137809 0.021312 0.123172 0.082218 0.025984 -0.204611 0.109588 0.033341 -0.193557 0.014604 -0.250482 0.06911 -0.062745 -0.100938 0.121261 -0.275099 -0.133435 -0.01922 0.117646 0.092923 0.002635 -0.065285 0.330573 0.018646 -0.041831 -0.134912 -0.113203 -0.066119 0.138768 0.027373 -0.230655 0.239357 -0.102543 0.143582 0.352281 -0.030811 0.076736 -0.098975 -0.055603 0.068977 0.27352 0.099523 -0.138047 0.098458 0.148688 -0.122427 -0.226449 -0.068779 -0.005772 0.265283 -0.100899 0.132025 -0.243586 -0.109645 0.031025 -0.012494 0.008383 -0.037791 0.079648 0.108483 0.221923 0.009075 -0.097878 0.138215 -0.063027 -0.023444 0.150626 -0.106588 -0.064569 -0.166751 0.210758 -0.299052 0.06539 0.024188 0.22337 -0.142128 -0.236332 -0.082102 -0.119232 -0.013324 -0.066343 0.067242 -0.102775 0.044555 -0.196587 0.072951 0.172996 -0.128595 -0.226594 -0.031282 -0.033633 0.020105 -0.108065 0.121766 0.09111 0.017493 -0.164612 0.2054 0.159042 0.07304 0.133273 0.069026 0.038283 -0.019228 -0.065822 -0.071908 -0.018302 -0.129092 0.181853 -0.125681 -0.129069 0.148896 0.097576 -0.056521 -0.14745 -0.139982 -0.225137 -0.145152 -0.106628 0.144436 0.159652 -0.089234 0.18031 0.075689 -0.005068 -0.052416 0.135514 0.122923 -0.100015 0.065702 -0.060475 -0.132788 0.038517 -0.059407 -0.069902 -0.009428 0.08786 -0.152747 0.078044 0.068929 -0.089024 -0.02589 -0.008695 -0.073352 0.011712 -0.023115 0.008247 -0.03831 0.051859 -0.050993 0.035563 -0.066597 0.01664 0.013889 0.10847 0.014964 0.019365 -0.149457 0.025537 -0.027312 -0.083048 0.052679 0.053057 0.035491 -0.005684 -0.072419 0.013176 -0.01828 0.094849 -0.075285 0.023683 0.102616 -0.027203 0.050794 -0.019735 -0.033442 -0.075035 0.057408 0.035141 0.138212 -0.094535 -0.051078 0.069666 0.055956 0.059345 0.017407 -0.104985 0.106047 -0.013109 -0.05898 -0.09821 -0.021169 -0.006492 0.013947 0.09592 0.024797 -0.015041 -0.070266 0.035444 0.046402 0.002038 0.050715 0.091853 -0.04824 -0.010099 -0.045885 -0.019327 -0.084828 0.118464 -0.062556 -0.003354 -0.015766 -0.043891 0.025549 -0.011792 0.008486 0.149772 -0.047458 0.028051 -0.006716 0.039983 0.031243 -0.048348 -0.043444 0.050356 0.054829 -0.032237 0.06041 -0.095258 0.055353 0.030356 0.133272 -0.063132 -0.014165 -0.026168 0.044845 -0.015541 -0.011498 0.031628 -0.022855 -0.003481 -0.030468 -0.027856 -0.017257 -0.062298 0.009464 -0.097923 -0.050994 -0.084795 0.103192 -0.080661 0.03107 -0.128615 -0.006521 -0.049559 -0.043842 0.048598 0.034962 -0.084419 -0.102137 0.022999 0.033477 -0.040235 -0.092136 -0.054778 -0.003269 -0.049915 0.008905 -0.057158 -0.020754 0.003731 0.068501 0.031434 0.048221 -0.008121 -0.063596 0.063156 -0.06493 0.012427 0.020499 0.004498 -0.072279 -0.003351 0.095634 -0.062823 -0.076592 -0.019774 -0.08065 0.042211 0.034394 0.103328 -0.020106 -0.017224 0.034736 0.103972 -0.008287 -0.059821 0.007751 -0.078683 -0.017552 -0.086796 0.030793 -0.035226 -0.016859 0.011149 0.024161 -0.066463 0.019786 -0.120164 -0.025824 -0.056598 -0.103863 -0.072077 0.066605 0.012575 0.09465 -0.095819 -0.07043 0.036823 0.104745 0.025512 0.032154 -0.054462 0.03486 -0.023491 -0.014259 -0.098716 0.171901 0.064854 0.102216 0.134599
3901618 0.065696 -0.09512 -0.011767 -0.205571 -0.100907 0.111289 -0.026806 0.418771 0.006748 -0.04489 -0.042449 -0.091817 -0.183502 0.054982 0.00999 -0.012939 0.05426 0.225712 0.021498 -0.045097 -0.000215 -0.012097 0.271661 0.025695 0.01098 0.075722 0.027396 -0.067546 -0.053877 -0.037292 -0.111986 -0.06171 -0.047931 0.010737 -0.01907 -0.075656 0.060603 0.094024 -0.055288 -0.019573 0.135406 0.066247 0.19793 0.214188 0.056799 -0.030362 -0.109813 0.011991 -0.541177 0.11274 -0.046021 -0.005985 -0.099728 0.056353 -0.078581 0.084625 0.159999 0.054204 0.048533 -0.05159 -0.051638 0.0046 -0.0152 0.084829 0.179252 -0.007834 -0.110391 0.095602 -0.041958 -0.164314 -0.025857 -0.149483 0.11299 -0.054283 -0.047059 -0.048123 0.051665 -0.210728 0.018442 0.141681 0.17263 -0.013172 0.097042 0.326667 -0.142781 -0.095123 0.018438 -0.016945 0.04544 0.116482 0.018098 0.06866 -0.136266 -0.114291 0.114577 -0.000857 -0.064433 0.033668 0.019341 -0.132673 0.046029 0.113266 0.013777 -0.015218 0.01796 0.097544 0.064722 -0.128303 0.061453 0.037088 0.16931 0.000635 0.103622 0.072863 -0.131905 0.096248 0.038294 -0.004498 -0.260133 0.212259 0.026926 0.388661 0.195751 -0.012476 0.117253 -0.010572 -0.038055 0.267026 -0.123546 -0.163219 -0.114932 0.191869 -0.248235 -0.171864 0.00713 0.211146 -0.141277 -0.244221 -0.055386 -0.019878 -0.08022 0.047809 0.032881 -0.061915 -0.096262 -0.116732 -0.028913 0.04028 -0.076384 -0.014863 -0.049364 -0.12794 0.000374 -0.006034 0.099557 0.095356 -0.04153 -0.073815 0.102483 0.136255 0.031459 0.064133 0.059839 -0.031965 0.052406 -0.117315 -0.032076 0.003399 0.064015 0.059076 -0.271484 -0.008512 0.167494 0.08369 -0.099201 -0.181244 0.060282 -0.189423 -0.0994 -0.000407 0.131605 0.092719 -0.12148 0.091393 -0.168548 -0.083271 0.064424 0.125684 0.105836 -0.026355 0.165491 0.038039 -0.12902 0.032945 0.152195 -0.171786 0.103044 0.083353 -0.212145 0.033964 0.037911 -0.075224 0.027657 -0.021966 -0.037383 0.000289 0.011808 -0.048154 0.096508 0.056318 -0.123185 -0.02182 0.018419 0.041819 -0.030112 0.046539 -0.094023 0.038836 -0.032569 -0.059297 -0.116062 -0.008111 0.041128 0.039399 0.009656 0.019329 -0.000103 -0.052063 -0.084595 -0.018983 -0.010034 0.120447 0.045236 0.125394 0.034899 -0.03304 0.032478 0.056439 0.21742 -0.051118 0.099711 -0.076497 -0.151738 -0.006175 0.034425 0.059284 -0.039392 -0.070574 -0.081261 -0.088316 0.097975 -0.069765 -0.013801 0.045333 0.082475 0.097347 0.133395 0.075616 -0.139585 0.047426 0.062705 0.077008 -0.014414 -0.02235 -0.073575 0.03892 -0.017456 -0.022899 -0.09306 0.063852 0.054854 0.07611 -0.080517 0.008149 0.033384 -0.066338 0.018151 0.095391 -0.066605 0.027614 0.081473 -0.083725 -0.041759 0.093806 -0.018281 -0.131852 -0.045371 -0.035764 -0.024126 -0.132729 -0.001446 0.10704 -0.032344 -0.006308 0.066832 0.022537 0.043409 -0.029097 -0.019753 0.018057 0.061316 -0.15608 -0.16981 0.084694 -0.132978 0.031558 0.001539 -0.151787 -0.041701 0.03421 -0.029454 -0.177134 -0.045862 -0.065382 -0.069386 -0.008597 0.075732 0.046878 -0.056326 -0.076518 -0.116504 -0.141488 -0.055723 0.03779 0.040399 -0.135461 -0.037936 0.059485 0.06229 -0.067968 -0.099503 0.070742 0.078987 0.014348 0.080479 -0.097451 0.025582 0.12917 -0.065034 0.112236 0.034486 0.08194 -0.012419 0.004404 0.13935 0.003654 -0.043893 0.044173 -0.094947 -0.0065 -0.065857 -0.052467 -0.045878 0.064841 -0.030795 -0.001323 0.049197 -0.082443 0.101426 -0.067573 -0.04858 -0.022606 0.01344 -0.115455 0.148371 0.080055 0.053508 -0.041015 0.042665 -0.153067 -0.005765 -0.05577 -0.068067 -0.135231 0.010189 -0.11126 0.115385 -0.03133 0.041193 -0.086627 -0.018173 -0.022033 0.042482 -0.058948 -0.10018 -0.0461 -0.029797 -0.063704 0.084892 0.049788 0.082284 0.037693
3901617 -0.001595 0.097946 -0.011436 -0.013998 -0.012699 0.012077 -0.004147 0.071037 -0.059567 -1.2e-05 0.05267 -0.135504 0.106417 0.000928 -0.049813 -0.123298 0.030969 0.060905 0.033523 -0.078121 -0.01568 0.05098 0.003036 -0.06822 0.009416 -0.148454 -0.035857 -0.032497 -0.005012 -0.075233 -0.026637 -0.119974 0.081776 0.016845 -0.018837 0.09135 0.005835 0.110602 -0.098278 -0.154421 0.082681 0.003408 0.074552 0.003804 0.095209 0.050197 0.008753 -0.107939 0.005937 0.10609 0.002571 -0.022101 0.093465 0.011619 0.054733 -0.044051 0.005567 -0.073764 -0.08618 -0.034075 -0.104494 0.125271 -0.065731 0.024289 -0.088436 0.089702 0.019559 0.020052 0.014644 -0.086736 -0.05329 -0.0071 -0.038412 0.108118 -0.006359 -0.081581 0.068785 0.080246 0.02759 -0.074068 -0.139317 -0.080738 -0.025362 0.062486 -0.06798 0.038632 -0.035224 0.02693 0.044981 -0.044597 0.020147 -0.029987 0.072301 -0.090048 -0.043871 -0.033534 -0.046473 0.020116 0.043541 0.108123 0.012605 -0.058083 -0.093933 -0.037223 0.060856 0.195958 -0.051972 -0.004689 0.029684 -0.038455 0.093413 0.005941 0.03433 0.007804 0.03246 0.081611 0.00956 0.085233 -0.042946 0.082339 0.024145 0.090291 0.043052 -0.067951 0.062725 -0.05552 0.022936 0.072498 -0.066411 -0.052759 0.076458 0.155609 0.005512 -0.01255 0.051935 -0.074664 -0.057831 0.016065 -0.013024 0.015417 -0.116446 -0.078839 0.064953 0.015846 -0.072797 -0.101234 0.073197 0.103498 -0.125957 0.172739 0.019492 -0.065597 0.024169 -0.101146 -0.065932 -0.013878 -0.071069 0.089147 0.028801 -0.002003 -0.09713 -0.072521 -0.038847 0.052515 -0.029511 0.083309 -0.098629 0.022916 -0.148328 0.150695 -0.079486 -0.119268 0.034014 0.014361 0.085741 -0.120577 -0.078512 -0.033648 -0.030658 -0.023672 0.075171 0.141192 0.009716 -0.104894 -0.08144 -0.067557 -0.118088 0.054777 0.013956 0.120186 -0.128979 -0.050326 -0.081507 0.013471 -0.011188 0.068575 0.091735 -0.06369 -0.098515 -0.014573 0.04309 -0.048307 0.164106 0.004839 0.269827 0.067888 -0.202766 0.08903 0.027113 0.028415 0.128458 -0.346623 0.019739 0.07975 0.011146 -0.114884 -0.11747 -0.01548 -0.014508 -0.065362 0.016209 -0.011128 -0.0246 -0.023488 0.053088 0.073095 0.158663 0.045891 0.002671 0.059284 -0.070372 0.060769 -0.007275 -0.094207 0.149049 0.029895 0.080866 0.060862 0.102608 -0.090196 0.083912 -0.057633 -0.108599 -0.03363 -0.096932 0.078591 0.016827 0.016387 -0.014969 0.013689 -0.023401 -0.02346 0.13383 0.020007 -0.027603 0.011717 0.058464 0.12435 0.01803 -0.156149 -0.004956 -0.062734 0.029379 0.032449 -0.179216 0.00999 0.260439 0.063825 0.000562 0.066767 0.120118 0.199367 0.038215 -0.084147 -0.062404 0.014061 0.051717 0.118712 -0.120549 -0.024995 -0.016277 -0.067977 0.026866 -0.114516 -0.028843 -0.154686 -0.066315 -0.016741 -0.249489 -0.113272 0.071258 0.091166 -0.078786 0.015535 0.097419 0.079647 0.017475 -0.052207 -0.062671 0.060987 -0.030928 -0.023928 -0.12202 -0.018583 -0.105697 0.083005 0.032267 0.088679 -0.103457 0.066527 -0.008972 -0.141219 -0.054257 0.005876 -0.098714 -0.015847 0.156513 -0.048167 0.082 -0.028578 -0.132706 -0.290043 -0.004655 0.095191 0.004875 -0.01037 -0.021737 0.06494 0.085318 -0.045232 0.024667 0.096285 0.060428 -0.057543 0.163318 -0.015719 0.136428 0.057332 -0.159847 -0.004965 0.031253 0.021927 0.091663 0.0481 -0.030516 -0.099407 -0.04589 -0.018367 -0.025712 -0.109015 0.027782 0.026127 -0.035292 0.054683 -0.015846 0.035981 -0.121807 0.027259 0.110202 0.027591 0.06805 -0.138205 0.009548 -0.085218 0.086022 0.03709 -0.016181 -0.140801 -0.059446 -0.11522 -0.00793 0.013485 0.013276 -0.083463 0.027574 -0.023425 0.040884 -0.039733 0.041003 0.043832 -0.089171 0.138593 0.113185 0.058617 0.032691 -0.055718 -0.113797 -0.147528 -0.06676 0.11381 0.087878 0.088836
3901615 -0.124789 0.303785 0.014718 -0.046397 -0.037586 -0.010873 0.036755 0.005773 -0.054942 0.029027 0.124365 -0.045019 0.154791 -0.102678 -0.149521 0.095953 0.02137 0.058195 0.029462 -0.12436 -0.000289 0.018615 -0.028637 -0.052536 -0.059444 0.043604 -0.029337 0.007818 -0.04758 -0.105531 -0.075381 -0.086951 0.050549 0.173536 0.123397 0.111705 -0.010028 0.06009 -0.036746 -0.128284 0.015011 0.050979 0.072014 -0.016604 0.082901 0.040447 0.012854 -0.10856 0.034788 0.012628 -0.051907 0.066957 -0.05049 -0.01706 0.075639 0.017239 -0.044143 -0.07541 -0.086911 -0.133829 -0.024526 0.101967 -0.047297 0.040867 0.045759 -0.025575 -0.065258 -0.047256 0.042569 0.009676 -0.106265 0.072426 0.009014 0.069025 -0.04597 0.15659 -0.050429 -0.068392 0.0794 -0.028225 -0.063483 -0.109675 0.02247 0.079438 -0.021664 0.02294 -0.048001 -0.011855 -0.00628 -0.014153 0.045455 -0.079177 0.17148 0.013226 0.154275 -0.037758 -0.045752 0.014874 0.009598 -0.010296 -0.008256 0.143881 0.041967 -0.088817 0.027181 0.062096 -0.067805 -0.037588 -0.052277 0.042192 -0.00842 -0.083494 0.023547 -0.11338 -0.077657 -0.069706 -0.029703 -0.020655 -0.053623 0.031723 0.131437 -0.006208 0.036352 -0.038248 0.021218 -0.075034 0.087862 -0.060054 -0.034905 -0.054734 -0.11199 0.046825 0.036207 -0.098986 0.073914 0.125967 -0.054251 -0.057303 0.003953 -0.001783 -0.031746 -0.045018 0.068362 -0.038298 0.07843 -0.018162 0.085202 0.044474 -0.041386 0.083032 -0.08946 0.030577 0.004246 -0.031429 -0.020336 -0.039632 -0.072801 -0.027503 -0.027903 0.083884 0.060756 -0.098359 0.083563 0.050755 -0.083846 0.127461 0.089587 0.052684 -0.186531 0.117014 -0.015154 -0.076743 0.061655 -0.149582 -0.018758 -0.077053 -0.028283 -0.035665 -0.060553 -0.041128 0.071958 0.177437 -0.062464 0.009049 -0.072127 -0.085155 -0.067941 0.039331 0.066301 -0.024105 0.044073 -0.168969 -0.043243 0.088007 -0.054349 -0.050305 -0.009259 -0.136624 -0.171286 0.061949 -0.00343 -0.141229 0.003467 0.020758 0.154066 -0.07989 0.017178 -0.00069 -0.129572 0.046666 -0.030894 -0.159275 -0.00871 0.025104 0.047661 -0.087654 -0.178893 -0.006533 -0.167432 0.026798 0.02528 -0.012934 0.089239 0.083794 -0.010251 0.02641 0.050413 0.003246 -0.042543 0.114031 -0.068487 0.072243 0.027708 0.028624 0.101194 0.093902 0.025167 -0.032794 -0.072564 -0.043247 0.043097 -0.051796 -0.091474 0.032254 -0.0044 -0.007052 0.023739 -0.033773 -0.000166 -0.013895 0.043768 -0.016424 0.061494 0.087116 -0.031946 0.092034 0.035656 -0.069968 -0.082091 -0.018471 0.114528 0.125288 -0.049835 -0.114016 -0.090664 -0.018216 0.111957 0.014624 0.08525 0.100915 0.124027 0.034773 -0.010464 -0.012307 0.068071 -0.044472 0.126411 0.101944 -0.086425 0.116763 -0.047886 0.062326 -0.007695 -0.043618 0.070319 -0.055127 -0.028415 -0.070968 -0.110841 0.023091 0.113902 0.015676 -0.044783 -0.042687 0.060879 0.059212 0.06068 -0.096487 -0.100985 0.041102 -0.029083 -0.059354 0.042857 -0.034473 0.000117 0.024692 0.009309 -0.017278 -0.046868 -0.040887 -0.08171 0.141686 -0.129706 0.004723 -0.062994 -0.071074 0.076403 -0.020573 0.048198 -0.057123 -0.026239 -0.128782 -0.052334 0.01844 -0.072442 -0.053249 -0.030978 0.250387 -0.108283 0.057521 0.051868 0.138846 -0.059211 -0.028278 -0.046048 -0.056141 -0.001456 0.058156 0.117728 -0.08699 0.078986 0.209595 -0.011705 -0.012197 0.045906 -0.046075 0.014767 0.085724 -0.086126 -0.056704 -0.024512 -0.004392 -0.030939 0.02336 -0.026202 -0.051095 -0.073876 -0.126224 0.019007 -0.093975 0.115963 -0.023931 0.09474 -0.089865 0.137175 0.043145 -0.037174 -0.047531 -0.078045 -0.181057 0.028737 0.004408 -0.024998 -0.088731 0.099534 -0.041165 0.049403 0.018346 -0.019782 0.049515 0.035362 0.121404 0.102279 0.034636 0.062135 0.011404 -0.033795 -0.107121 -0.022071 0.089003 0.052026 -0.053077
3901614 -0.129318 0.383807 0.064151 -0.046432 -0.031474 -0.041261 0.007967 0.017512 -0.026299 0.044146 0.211598 -0.027169 0.135173 -0.038999 -0.146079 0.1132 -0.011683 0.065109 0.029306 -0.113159 0.014699 0.026332 -0.018967 0.017373 -0.011243 0.062058 -0.046254 -0.009947 -0.056506 -0.114116 -0.078239 -0.096842 0.045031 0.261093 0.128988 0.08326 -0.019193 0.036528 -0.05665 -0.138967 0.025684 0.046345 0.076929 -0.008667 0.083417 0.051154 0.016303 -0.116591 0.025481 0.010559 -0.017599 0.054388 -0.064782 0.017773 0.06618 0.025443 -0.036297 -0.087014 -0.086866 -0.131046 -0.043746 0.104998 -0.020034 0.020263 0.027423 -0.021153 -0.072161 -0.044147 -0.008911 0.111523 -0.068512 0.112167 0.00716 0.074067 -0.01436 0.16908 -0.075683 -0.046958 0.067261 -0.072774 -0.029103 -0.112449 -0.000209 0.043242 -0.028912 0.018105 -0.08159 -0.019096 -0.025413 -0.042433 0.062041 -0.082003 0.171827 0.026722 0.169746 -0.059006 0.026492 0.047408 0.003233 -0.008082 -0.009925 0.142124 0.004186 -0.084129 0.015514 0.001541 -0.077215 -0.040882 -0.056183 0.030318 0.017923 -0.080487 0.046865 -0.069977 -0.088679 -0.063631 -0.019641 -0.044935 -0.043379 0.034073 0.146674 -0.034603 0.066216 -0.049305 0.029244 -0.080052 0.06955 -0.034252 -0.04404 -0.046463 -0.113989 0.073879 0.030114 -0.066767 0.092724 0.122086 -0.022934 -0.058062 0.028453 -0.002279 0.027271 -0.050181 0.120888 -0.042973 0.061776 0.002779 0.093501 0.066532 -0.021625 0.073876 -0.144065 0.04318 0.019089 -0.064035 -0.004961 0.010097 -0.081684 -0.059512 -0.063167 0.085217 0.052081 -0.087761 0.091257 0.039262 -0.063217 0.105431 0.092981 0.045945 -0.195974 0.098443 0.054415 -0.077804 0.07891 -0.141254 0.025448 -0.03327 -0.00464 -0.013432 -0.050088 -0.017405 0.069941 0.15212 -0.082202 0.071774 -0.050628 -0.067687 -0.047279 0.05442 0.065789 -0.071008 0.075226 -0.071635 -0.047796 0.093867 -0.033746 -0.012994 0.051415 -0.103594 -0.167643 0.06796 0.136282 0.00824 -0.062967 -0.081643 0.055161 -0.016483 -0.011713 0.097807 -0.064569 0.106024 -0.008615 -0.027972 0.367148 0.082403 -0.136271 -0.048424 -0.003098 0.029927 -0.048782 -0.215216 -0.272777 -0.028073 0.069805 0.03602 0.026851 -0.125535 0.042764 -0.122665 -0.150177 0.093431 -0.044371 0.037822 0.072073 0.033469 -0.438494 0.114898 0.138358 0.032525 0.05948 0.062262 0.03979 -0.066612 -0.249095 0.28848 -0.10817 -0.052689 0.051803 0.117891 0.133512 -0.074081 -0.069077 0.027422 0.062397 0.115281 0.178419 -0.047633 -0.089742 0.070848 0.09466 -0.113785 0.239072 0.051827 -0.171719 -0.204801 -0.05135 -0.036477 0.137347 -0.044107 -0.058691 0.017773 -0.007691 0.033069 -0.028184 -0.032866 -0.104557 0.014024 0.128523 0.022883 -0.132684 0.024298 -0.048079 -0.085423 0.218669 0.003858 -0.135876 -0.05367 0.025446 -0.190326 -0.019807 -0.11257 -0.095467 -0.033626 -0.026343 0.104414 0.001465 0.146152 0.072594 -0.025981 -0.106661 -0.048906 0.016464 -0.080355 -0.10006 0.05567 -0.120608 -0.008046 0.049387 -0.197566 0.040456 0.109444 -0.156741 0.049484 -0.062271 0.07114 0.025959 -0.157074 0.048243 0.036819 -0.001753 0.001065 -0.063079 -0.010991 -0.090407 0.129756 -0.067212 -0.106779 -0.009644 0.017262 -0.031218 -0.034129 0.102881 0.151941 -0.003875 -0.001859 -0.070671 -0.027582 -0.081021 0.03909 0.148132 0.154396 -0.055048 0.141605 0.14356 -0.018905 0.136634 -0.136315 0.026299 -0.07845 0.098092 0.266944 0.06121 -0.047416 0.060226 0.031435 0.032537 -0.20112 -0.036236 -0.19647 0.052946 -0.177733 0.043477 -0.03725 0.139089 0.079713 -0.033217 0.004626 0.015705 -0.003099 0.200066 -0.263585 0.054839 -0.070261 0.110363 -0.10253 0.015945 -0.044049 0.074297 -0.049204 -0.028151 -0.168551 0.057396 -0.027175 0.117298 0.031639 -0.174687 -0.10163 -0.136918 -0.040961 -0.034638 0.202762 0.125605 -0.064226
3901612 -0.084385 0.328213 -0.042148 -0.036027 -0.025941 -0.080471 0.062977 0.045343 -0.047064 0.03285 0.242713 0.013691 0.162201 -0.007221 -0.152279 0.064496 0.034517 0.05126 0.080543 -0.138634 -0.092395 0.057615 -0.054887 0.002491 0.046783 -0.012202 -0.036808 0.024542 -0.060819 0.008933 -0.088468 -0.11109 0.042734 0.154216 0.102307 0.100877 0.007924 0.061549 -0.064471 -0.088373 0.02494 0.074406 0.074744 0.031308 0.062539 0.040662 -0.00307 -0.061308 0.036599 -0.002198 -0.120591 0.041848 -0.024367 -0.020813 0.056959 0.062183 -0.063668 -0.074894 -0.077631 -0.072427 -0.045043 0.112825 -0.028938 0.060962 0.068107 0.004401 -0.017496 -0.06128 0.007907 0.057839 -0.059294 -0.015863 0.001904 0.077657 -0.056603 0.154206 -0.034685 -0.081694 0.060724 -0.104591 -0.035509 -0.120633 0.012299 0.052173 -0.055872 0.067014 -0.155821 -0.017504 0.002662 -0.047761 0.06113 -0.102103 0.204875 0.026399 0.152183 -0.076095 0.049207 0.005681 0.023095 -0.001438 0.014139 0.144209 0.069068 -0.104895 0.028064 0.014566 -0.091665 -0.062512 -0.035123 0.068872 -0.005968 -0.061447 0.094755 -0.157277 -0.089514 -0.030633 -0.018333 -0.096811 -0.057042 0.049522 0.104228 0.090094 0.069862 -0.016742 0.048528 -0.086186 0.065241 -0.050655 0.03805 -0.048418 -0.10076 0.050207 0.099819 0.000248 0.125666 0.107787 -0.067604 -0.059359 0.03015 0.030362 -0.101831 -0.018628 0.099951 -0.043967 0.032049 -0.026625 0.08147 0.018237 -0.082601 0.091155 -0.085597 -0.00665 0.019935 -0.034756 -0.005952 -0.039469 -0.089833 -0.072275 -0.034722 0.07179 0.061118 -0.057693 0.073245 0.056817 -0.089769 0.13776 0.118761 0.028347 -0.187793 0.150616 0.027429 -0.086339 0.07672 -0.161778 0.014651 -0.086962 0.032624 -0.009617 -0.053676 -0.026252 0.07457 0.199507 -0.080339 -0.0285 -0.089868 -0.09006 -0.050534 0.011102 0.084006 0.012294 0.012397 -0.110297 -0.059239 0.044727 -0.091283 -0.062039 0.145232 -0.077151 0.002171 0.208673 -0.008116 -0.062392 0.167173 -0.092529 0.026315 -0.079831 -0.08691 -0.020457 -0.086856 0.073005 -0.011817 -0.04475 -0.020112 0.172691 -0.100121 -0.112449 -0.005423 0.040241 -0.060838 -0.024073 0.042119 -0.049131 0.084212 0.023044 -0.136257 0.025228 -0.015429 -0.148792 0.099438 0.078784 0.076916 0.076593 -0.026151 -0.015143 0.051589 0.100367 -0.025577 -0.099633 -0.121645 -0.046983 0.023639 0.029248 -0.041549 -0.040984 -0.039431 0.22286 -0.004801 -0.043328 0.050825 0.028434 0.010226 -0.071842 0.098728 0.059587 -0.047779 0.08969 0.014091 -0.061726 0.031679 -0.182508 0.185417 0.017537 0.021845 -0.171156 0.015855 -0.027695 0.087696 0.003612 0.021698 0.003364 0.033302 0.199601 0.068791 -0.142744 -0.071193 0.043693 0.205005 -0.037439 -0.10648 0.080129 -0.016662 0.023227 0.114493 -0.062752 0.13831 -0.075939 -0.01841 0.012928 -0.01393 0.105769 0.107368 0.099209 -0.169778 0.254147 0.005268 0.126335 0.002283 -0.17206 0.033071 0.029284 -0.062449 0.051015 0.067223 0.01377 0.006532 -0.01122 0.068603 0.282832 -0.052928 -0.035555 -0.051444 -0.089816 0.054861 0.087367 -0.040997 -0.103162 0.028508 0.162572 0.122093 -0.114116 -0.055385 -0.00285 0.071229 0.02253 -0.168406 -0.0778 -0.193872 0.114031 -0.049939 0.054381 0.093076 0.277191 -0.160211 -0.051708 -0.110195 -0.057832 -0.232198 0.01039 0.161034 -0.125953 0.160118 -0.016336 0.072033 0.103592 0.032591 -0.031688 0.15713 0.01734 -0.027163 -0.079756 -0.022124 -0.043511 0.0879 0.087239 0.229214 -0.026234 -0.04846 -0.111233 0.041302 -0.060549 0.157939 0.003811 -0.071559 -0.106684 0.039517 0.019617 -0.065425 -0.000704 0.164362 -0.000952 -0.011644 -0.012429 -0.043388 -0.037344 -0.003727 -0.010311 0.124448 0.203572 0.042147 0.036208 -0.059816 -0.025607 0.048391 0.122394 -0.026765 -0.028832 -0.028624 -0.168631 0.168226 0.27047 -0.092881 0.001796
3901404 0.037568 0.060977 0.001109 -0.020805 -0.019998 -0.012256 0.006694 0.200717 -0.127713 0.001972 0.183444 -0.079554 -0.006455 0.072773 -0.035869 -0.005821 0.069659 -0.007271 0.0204 -0.031191 -0.0185 0.061235 0.064998 -0.081872 -0.013959 -0.235696 -0.034463 -0.08559 0.006267 -0.094697 -0.05765 -0.058751 0.042136 0.040086 -0.050018 0.033215 0.024792 0.026108 -0.062944 0.037917 -0.051122 0.008201 0.021151 0.075598 0.092808 0.000367 0.052202 -0.103639 -0.055304 0.030156 0.080908 0.045558 0.02979 -0.014198 0.051415 -0.067616 0.058362 0.097051 0.026886 0.010021 -0.030072 0.149762 -0.06793 0.051704 0.08185 0.089919 -0.010385 -0.03862 -0.035151 -0.088284 -0.083793 -0.117026 -0.088902 0.077114 -0.037584 -0.073808 0.05227 -0.092929 -0.021202 0.094582 -0.118986 -0.012751 -0.000645 0.145387 -0.178782 -0.027135 -0.092043 -0.042486 0.058516 0.0408 -0.07558 -0.09606 0.023635 -0.090957 0.051623 0.066785 -0.042145 0.012792 -0.00942 0.075279 0.036983 0.041307 -0.002273 -0.053175 0.026935 0.100135 -0.043501 -0.09088 0.165613 -0.013021 0.060356 -0.026473 0.076056 0.01579 0.031518 0.041761 -0.018254 0.025969 -0.045535 0.095815 -0.085314 0.114514 0.055615 -0.095941 0.089183 -0.056387 0.038601 0.06983 -0.072523 -0.104435 -0.065387 0.101023 -0.030315 -0.000806 0.029298 0.159333 -0.073533 0.014983 -0.027156 -0.090849 -0.081083 -0.034602 0.074738 -0.00964 -0.032219 -0.116084 0.062435 0.025149 -0.085078 0.042183 0.031347 0.070738 0.062151 -0.11554 -0.028364 -0.031505 -0.172718 -0.01295 0.159269 -0.0592 0.022352 0.084784 -0.009643 0.06943 -0.003144 0.050592 -0.113621 0.036161 -0.018947 0.226492 -0.078367 -0.153235 0.050547 0.001793 -0.052041 -0.252533 -0.036334 -0.085548 -0.031594 0.135103 0.098835 0.123661 -0.004111 -0.003412 -0.111422 -0.023724 -0.134066 0.032956 0.054612 0.087234 -0.134263 -0.125066 -0.049787 0.007862 0.011837 -0.040697 0.073805 0.144479 -0.01797 -0.053522 0.059967 -0.047952 0.039966 -0.019602 -0.334696 -0.081294 -0.036295 0.027471 -0.002859 0.047355 -0.104263 0.182541 -0.215503 -0.076583 -0.118778 0.025581 0.160359 -0.073784 -0.267083 -0.000975 0.010677 0.06743 0.183648 0.064389 -0.139098 0.09588 0.003017 -0.130062 -0.094939 0.134407 -0.122646 0.15987 -0.014373 0.104559 -0.169904 0.056521 -0.042779 -0.294339 -0.229099 0.09677 0.093346 -0.116068 -0.080212 0.096477 0.007772 0.023658 -0.055202 -0.133726 -0.033118 -0.10143 0.031287 -0.14295 -0.032341 0.056605 0.072223 0.065185 0.175319 -0.056824 -0.07243 0.134187 0.080956 0.216717 0.154075 0.00615 -0.029716 0.050431 -0.250423 0.03582 -0.065663 0.000415 0.053571 -0.171246 0.047557 -0.052524 -0.047692 -0.172954 0.205895 0.127781 -0.064061 -0.015425 0.285934 0.063294 0.134307 -0.031708 -0.104618 0.236178 0.049936 -0.094858 0.061223 -0.217352 0.141062 -0.038371 -0.026701 0.109924 0.007584 -0.058464 0.051792 -0.080909 -0.085495 0.022205 -0.034384 0.005254 0.040255 -0.003691 -0.064727 0.054657 0.085319 0.018798 -0.041065 -0.147802 0.153959 -0.453688 -0.018816 0.070829 0.11117 -0.140695 0.018484 0.076023 0.121332 -0.020851 -0.105963 0.054997 -0.018743 -0.053293 0.024414 -0.115328 0.034977 -0.097022 0.026479 0.087115 0.033925 0.194201 -0.018837 0.066677 0.033205 -0.159055 -0.133147 0.106593 -0.011236 0.211061 -0.143136 0.27008 0.029669 -0.073793 0.002971 -0.038561 -0.083454 -0.058807 -0.186485 0.061504 0.042645 0.027659 0.002273 -0.023076 -0.071023 0.134775 0.032116 -0.04782 0.018853 -0.184145 0.063792 -0.148504 0.019978 -0.040821 -0.055747 0.058089 0.156182 0.182372 -0.026314 -0.052578 0.052066 -0.228767 0.054534 -0.089534 0.030307 0.003959 0.26305 0.008705 0.081674 0.006729 -0.034322 -0.066068 0.138449 0.008666 -0.046821 -0.021798 -0.08056 -0.106991 0.152057 0.091397 0.422625 -0.043976
3901270 -0.058743 0.110124 0.053856 -0.015702 0.024749 -0.041291 0.016852 0.027886 -0.099309 0.122016 0.122285 -0.057304 -0.155913 -0.012724 -0.096571 0.139521 -0.14511 -0.00494 0.022004 -0.112895 -0.031439 -0.033943 0.063667 0.043623 0.002576 -0.151801 -0.145848 -0.050427 -0.104187 -0.112373 -0.066146 -0.05188 0.148762 0.163834 -0.095484 -0.109298 -0.036951 0.047835 -0.095019 0.017781 0.075869 0.0324 0.179653 0.091952 0.155101 0.148548 0.034356 -0.005698 0.061924 0.071198 0.169406 0.005726 -0.138855 0.070046 0.046127 -0.017402 -0.04909 0.047377 -0.079691 -0.026994 -0.102845 0.142868 -0.016397 0.081161 -0.012846 0.074035 -0.053246 -0.023265 -0.097154 0.075941 -0.060417 -0.061117 -0.001181 -0.089227 0.007245 -0.0036 -0.066806 -0.010046 -0.185205 -0.00981 -0.058817 -0.001118 -0.052653 0.174631 -0.111261 -0.029556 -0.080858 -0.039975 -0.041683 0.041663 0.065722 -0.223747 0.10389 -0.129984 0.161648 0.047034 0.021054 0.073955 0.021073 -0.027653 0.062926 0.098334 -0.138415 0.009628 0.110429 0.056027 -0.01844 -0.109383 0.111362 0.02186 0.089218 -0.180546 0.03058 0.139491 -0.039238 -0.029937 0.016804 -0.053723 -0.04152 0.089331 0.044288 0.046194 0.02572 -0.126914 0.039041 0.006474 -0.057062 0.073288 -0.08528 0.176419 -0.090306 0.210746 -0.085949 0.005996 -0.046248 0.043781 -0.002293 -0.031086 0.001404 -0.052769 -0.00405 0.122927 0.129747 0.065061 0.039793 -0.0924 0.098666 -0.082267 -0.181415 0.118346 -0.062897 0.096033 -0.0064 -0.157588 -0.048138 -0.043795 0.089559 -0.098397 0.046055 0.006653 -0.181474 0.150722 0.003843 0.071735 0.031599 -0.059067 0.021979 -0.005546 -0.00786 0.059618 0.052671 -0.104573 0.210594 0.037981 -0.085062 -0.063878 0.023386 0.113167 -0.017915 0.105293 0.062377 0.128913 -0.097775 0.121484 0.01699 0.053855 -0.029432 0.018264 -0.010523 -0.043341 0.040985 -0.038214 -0.172179 0.065319 0.061554 -0.041358 0.048928 -0.009776 -0.236216 0.041501 -0.090309 0.042558 0.031342 0.138702 -0.114845 -0.074925 0.060426 0.014863 -0.069283 0.017806 0.029958 0.148285 -0.186896 -0.057422 0.018278 0.017143 0.055868 -0.107542 -0.16262 0.059941 -0.009564 0.000256 0.174548 0.011258 0.058165 -0.02634 -0.00326 0.065103 -0.010166 0.313595 -0.128063 0.164094 -0.034897 0.045672 0.014334 0.009352 -0.056628 0.005178 -0.031507 0.066878 0.114621 -0.090835 -0.068273 0.19254 0.073883 0.053305 -0.031296 -0.077141 0.054192 -0.037286 0.074865 -0.214827 -0.1543 0.037769 0.11885 0.025251 0.062708 -0.035284 -0.03557 0.088467 0.065137 0.16072 -0.041865 0.030332 0.063886 0.005976 -0.229464 -0.076192 -0.101203 0.24725 0.09856 -0.043364 -0.068848 -0.062633 -0.025784 -0.17291 0.030508 0.103205 -0.116185 0.13869 -0.000427 0.035419 0.063923 0.024644 -0.015776 -0.0218 -0.018904 -0.089602 0.414194 -0.156473 0.058231 -0.035305 -0.061318 -0.074889 -0.056088 0.086826 -0.046704 -0.052411 0.094742 -0.114199 -0.011161 0.055876 -0.000231 -0.014219 -0.022705 -0.103644 0.060177 -0.026137 -0.077623 -0.045992 -0.187841 -0.293822 -0.026299 0.164022 0.026323 -0.191328 -0.202223 0.017748 -0.098064 -0.065792 0.049821 -0.053052 -0.132263 0.071654 -0.142229 -0.064 0.139045 -0.073772 0.034832 0.083351 0.045829 0.084421 0.161308 -0.072902 0.054169 -0.054858 0.031645 0.156762 0.057554 0.04689 0.021709 0.180923 -0.073156 -0.02346 0.140381 -0.055619 -0.032143 0.079067 -0.138743 0.237659 -0.000309 0.019157 0.047156 0.161417 -0.044677 0.001521 0.141823 -0.260751 -0.004149 -0.114991 0.089347 -0.159101 0.118558 -0.090635 -0.070664 -0.030871 0.216288 0.017234 -0.07394 -0.130242 0.038984 -0.101503 -0.09432 -0.09779 -0.032076 -0.05226 -0.05323 0.025069 0.017085 -0.107083 0.042536 -0.020375 0.07428 0.031482 0.043479 -0.10712 0.153733 -0.082373 0.170249 0.055338 0.038249 0.075602
3901613 -0.050573 0.251422 0.070377 -0.144406 -0.019261 -0.049731 0.074285 -0.000387 -0.003356 0.032875 0.144686 -0.042467 0.086871 -0.144119 -0.138094 0.114012 0.014773 -0.024955 0.061202 -0.073929 0.131422 -0.001568 0.003712 -0.071626 0.04261 0.055871 -0.074275 0.042112 -0.046401 -0.0751 -0.078628 -0.118817 0.043804 0.201035 0.12178 0.111159 0.043249 0.024064 0.016371 -0.069672 0.043739 0.07561 0.106438 -0.016485 0.096901 0.034648 -0.0153 -0.167508 0.030379 -0.004998 -0.108693 0.061831 -0.066937 -0.043285 0.098808 -0.001239 -0.007559 -0.072536 -0.095371 -0.116234 -0.038167 0.105597 -0.013197 0.116087 0.022734 0.036147 -0.047998 -0.039497 -0.019458 0.091539 -0.012762 0.016705 0.022545 0.055437 -0.048841 0.150161 -0.110313 -0.047121 0.032932 0.026478 -0.053909 -0.114891 0.00015 0.106877 0.034361 0.020931 -0.088491 0.040073 -0.020053 0.043816 -0.012639 -0.024437 0.146008 -0.023079 0.168503 0.012678 0.027539 0.037591 0.006811 0.01146 0.047174 0.173204 0.010222 -0.097431 0.020201 0.049011 -0.082295 -0.018392 -0.004788 0.029572 0.042232 -0.063745 0.074531 -0.086848 -0.081186 -0.075177 -0.019192 0.06794 -0.077625 0.067181 0.144148 -0.039609 0.033534 -0.078743 -0.009329 -0.099559 0.073802 -0.011814 -0.079157 -0.026062 -0.131825 0.058912 0.031832 -0.010178 0.041887 0.125322 -0.040191 -0.093726 -0.005509 -0.041056 -0.051165 -0.059532 0.108391 -0.03293 -0.006404 0.013827 0.074689 0.042865 -0.068987 0.040807 -0.136374 0.060864 0.022459 -0.104987 0.009134 -0.024529 -0.07477 0.013716 0.045549 0.063735 0.081924 -0.095808 0.117479 0.059088 -0.040277 0.075608 0.011429 0.043 -0.191397 0.109517 -0.003507 -0.077959 0.075545 -0.105198 0.126793 -0.147213 -0.03037 -0.028449 -0.049481 -0.02576 0.081289 0.139414 -0.088225 0.12726 -0.048625 -0.085742 -0.059291 0.064157 0.086476 -0.11917 0.085823 -0.111361 -0.072303 0.089718 -0.130525 -0.031139 -0.003898 -0.171141 -0.142586 0.043354 0.149383 -0.071167 0.091476 -0.125478 0.1635 -0.027625 -0.013112 0.007054 0.031281 0.098584 0.015295 -0.081839 -0.090472 -0.03527 -0.142408 0.034335 -0.505255 0.011529 -0.042977 -0.146666 0.119664 -0.077443 0.043142 -0.033231 0.04498 -0.040753 0.006219 0.093563 0.053769 0.04467 0.006425 0.014967 0.151274 -0.152183 0.015888 0.062702 -0.044589 0.180862 0.165519 -0.016011 0.011657 0.012385 -0.148861 0.030703 -0.136341 0.03131 0.011587 0.101707 -0.081766 -0.019527 0.068054 -0.099883 0.072338 -0.01687 0.023761 0.051676 -0.000609 0.088739 0.022931 -0.13607 0.067315 0.068362 -0.113255 0.059254 -0.084038 -0.010195 0.061727 -0.003999 -0.082857 0.148615 0.073342 0.078987 0.058403 -0.044748 -0.005698 0.118111 0.060565 0.063929 -0.033056 -0.023355 0.148902 -0.007899 0.011823 -0.094084 -0.017293 -0.087499 -0.015492 -0.030142 -0.126939 -0.247727 0.262547 -0.013303 -0.074491 0.032105 0.052349 0.129657 0.091458 -0.055045 -0.168248 0.07965 0.193904 -0.110024 -0.00699 0.037221 -0.067084 -0.016401 -0.011874 -0.08419 -0.05657 -0.086039 -0.066449 -0.112097 -0.025434 0.019716 -0.102765 0.002031 0.205504 -0.083443 0.041683 -0.122519 -0.01825 -0.268452 -0.023151 -0.008944 -0.086329 0.006954 -0.197616 0.002293 0.051057 -0.015606 -0.070552 0.086318 0.054421 0.010217 0.140282 -0.026947 -0.016941 0.162329 0.021185 0.044261 0.030575 0.01809 -0.014066 -0.059821 -0.016663 -0.082913 -0.074557 0.082414 -0.068168 -0.089888 -0.041944 0.104989 -0.040243 0.159714 -0.020708 -0.039978 -0.011468 -0.132265 0.110144 -0.094626 -0.022866 -0.006972 -0.051251 -0.049962 0.147278 -0.027904 -0.055242 -0.189188 -0.042234 -0.209298 -0.227863 0.000103 -0.020299 -0.15258 0.064338 0.041759 -0.003784 -0.004252 -0.045499 0.083643 0.026113 0.170747 0.031332 0.069906 -0.082168 -0.050425 -0.038935 -0.052942 0.058303 0.152505 -0.165497 0.035984
3901604 -0.003149 0.042465 0.027 -0.119054 -0.04398 0.062658 0.00916 0.119242 -0.028431 0.021308 0.046598 -0.089868 0.070157 -0.029267 -0.121426 -0.013326 0.110659 0.036057 -0.022482 0.040465 -0.026379 -0.043242 0.109537 -0.103225 -0.006155 -0.154161 -0.090966 0.10813 0.10138 -0.04568 0.019794 0.011714 0.017338 0.055524 -0.075224 -0.040442 0.013646 0.131458 -0.108028 -0.12776 0.031424 0.034685 0.194516 0.024867 0.019999 -0.024887 0.148008 -0.058356 0.042624 0.0734 0.012375 -0.011939 0.248664 -0.08938 0.119173 0.034535 0.023932 0.058725 -0.032078 -0.079727 0.073031 0.246404 -0.006978 0.006059 0.021343 0.038885 -0.09402 0.038434 0.041176 -0.16101 -0.024297 0.024671 -0.009925 0.095992 0.033928 -0.104494 -0.196887 -0.063944 -0.107078 0.141758 -0.117154 -0.058175 0.102187 0.231702 0.118436 0.021804 0.021654 -0.059941 0.088234 -0.012945 0.092554 0.1997 0.19252 0.026728 -0.037148 0.22202 0.030596 0.001462 0.01718 0.15626 0.135172 0.042691 -0.104809 -0.198065 0.023728 0.106409 -0.025436 0.017355 0.03717 -0.01643 0.118756 -0.087208 0.115387 -0.061567 -0.085777 0.093382 -0.005024 0.048129 -0.047766 0.064567 -0.16333 0.036593 0.031931 -0.083774 0.012735 0.022051 0.083037 0.095361 -0.103001 -0.037546 -0.249987 0.086668 -0.026554 -0.014441 0.072517 0.156551 0.032078 -0.014408 -0.080382 -0.147274 -0.058293 -0.120766 0.049656 -0.040406 -0.040856 -0.071878 0.063654 0.061391 -0.116637 -0.116632 -0.096829 -0.032555 0.026173 -0.067038 0.011898 -0.02569 0.030773 0.101183 -0.030461 -0.023014 -0.063755 -0.033562 0.039747 0.099752 -0.084484 -0.032548 -0.118087 0.031182 -0.055986 0.061408 -0.083641 -0.101685 -0.049481 -0.097959 0.080928 -0.013624 -0.103695 -0.1207 -0.110311 -0.022341 0.112718 0.091327 -0.007305 0.02878 -0.026457 -0.043504 -0.048898 0.016691 -0.082212 0.091819 -0.010682 -0.021935 -0.01647 -0.027597 -0.083958 0.015611 0.141005 -0.05888 -0.129413 -0.172426 0.092657 -0.064071 -0.002086 -0.065786 -0.081183 -0.003507 -0.176076 -0.279522 -0.147213 -0.03392 0.016455 0.014572 -0.192306 0.182695 0.052533 0.061832 0.034192 -0.084838 -0.118321 -0.299296 -0.137791 -0.083017 0.078095 0.017889 0.139307 0.108028 -0.00636 -0.026785 -0.09772 -0.038887 0.058305 0.130665 -0.068587 -0.045475 0.05891 -0.169257 -0.051464 0.167756 0.092021 -0.079178 0.043277 -0.112692 -0.008751 0.166786 -0.096624 -0.069791 -0.029335 0.270908 -0.179003 -0.167145 0.020954 0.06866 0.184966 0.054685 0.062661 -0.00703 -0.026436 -0.091947 -0.158277 0.02008 0.062266 -0.181955 -0.049445 0.113607 -0.049343 0.076446 -0.062322 -0.139466 -0.121307 0.155783 0.008757 0.22544 0.00656 -0.085679 -0.072816 0.023934 0.166576 0.043868 -0.255573 -0.00807 0.140212 0.113948 -0.049002 0.226837 -0.020851 -0.094039 0.077935 0.073803 0.034998 -0.164011 -0.119552 -0.053017 -0.021839 0.043343 0.074244 -0.015202 0.062929 -0.142456 -0.025888 0.024439 -0.048543 -0.026919 0.01053 0.110202 -0.17091 0.071284 -0.050093 -0.070502 -0.002662 -0.060313 -0.139131 0.047912 0.190294 0.112233 -0.245467 -0.040121 0.059841 -0.108457 -0.006863 0.084512 -0.080494 -0.025139 -0.035594 -0.025674 -0.050872 0.009855 0.085967 -0.195778 -0.006822 0.09848 -0.263959 -0.063374 -0.022914 0.029767 0.099491 -0.148744 0.0326 0.043477 -0.082397 0.154469 0.190464 0.000797 0.05315 0.062866 0.068752 -0.154113 -0.171819 -0.089916 -0.043613 0.253253 0.039937 0.150593 0.004847 0.068051 -0.202185 0.08884 0.065318 -0.056316 0.201971 -0.180463 -0.006864 -0.284963 -0.186824 0.098637 -0.026661 0.101692 0.011987 -0.068525 -0.212109 -0.127832 -0.131557 0.076254 -0.135921 -0.137665 -0.123705 -0.201782 -0.121811 0.049067 0.030584 0.045652 -0.027418 0.085286 0.065705 0.038234 0.051719 -0.125406 -0.051088 -0.035443 0.105512 0.113304 0.06855 0.232549
3901545 -0.059662 0.377163 0.037372 -0.076485 -0.039588 -0.012121 0.045678 -0.017663 -0.05941 0.025594 0.061506 -0.040602 0.116901 -0.176927 -0.154911 0.13508 -0.005203 -0.026783 0.016289 -0.089714 -0.006999 0.042134 -0.018282 0.013209 -0.022881 0.079933 -0.061938 -0.00689 -0.045674 0.018149 -0.069486 -0.126883 0.03446 0.170997 0.160795 0.131999 -0.007059 0.012761 -0.016553 -0.139314 0.015854 0.03836 0.103166 -0.017663 0.094723 0.050065 0.002005 -0.131603 0.020635 0.001689 -0.033127 0.065217 -0.115076 0.013773 0.077196 -0.030876 -0.040252 -0.053446 -0.104467 -0.123598 -0.038694 0.100346 -0.016084 0.042995 0.036358 -0.000531 -0.063664 -0.047389 -0.011595 0.105772 -0.074012 0.051623 0.01022 0.071538 -0.026266 0.175579 -0.024765 -0.052116 0.072475 -0.038986 -0.025827 -0.102471 0.018211 0.083128 0.006597 0.019077 0.118504 -0.058449 -0.037911 -0.012303 0.008982 -0.089719 0.138547 0.020172 0.180208 -0.039249 -0.002431 0.013526 0.02064 -0.027536 0.044568 0.139581 0.024292 -0.069468 0.022374 0.025491 -0.089827 -0.02598 -0.030814 0.085655 -0.020248 -0.080766 0.061466 -0.06288 -0.073429 -0.095793 -0.012061 0.03153 -0.049774 0.026036 0.142388 -0.103784 0.029392 -0.06018 0.011143 -0.09312 0.079864 0.022396 -0.064517 -0.045198 -0.113322 0.061003 0.025605 -0.051831 -0.107235 0.11977 -0.057014 -0.056712 -0.007683 -0.026287 -0.014846 -0.049131 0.069301 -0.008674 0.057314 0.037215 0.08192 0.043185 -0.045966 0.058289 -0.119855 0.010471 0.04358 -0.047448 -0.00525 -0.041552 -0.070754 -0.044044 -0.029222 0.096003 0.09288 -0.112383 0.105548 0.043655 -0.037003 0.104024 0.078616 0.066307 -0.184855 0.116119 0.093903 -0.064524 0.102105 -0.109531 0.057986 -0.064186 -0.01596 -0.040946 -0.086817 -0.020685 0.050557 0.137721 -0.086102 0.141927 -0.062216 -0.102899 -0.049956 -0.001892 0.048551 -0.059573 0.057308 -0.035875 -0.050557 0.121243 -0.03387 -0.007679 0.014856 -0.200918 0.011833 -0.015301 0.162345 -0.248987 -0.005737 0.0418 0.172821 -0.04561 -0.07418 0.122502 0.021919 0.005438 -0.017233 0.064416 0.142048 -0.072745 -0.170753 0.072028 -0.065625 0.243633 -0.04247 -0.05522 -0.356342 -0.075542 0.005707 0.076543 -0.134301 0.043819 0.166534 -0.143354 -0.180946 -0.131434 -0.114661 0.040176 0.100415 -0.035361 -0.068415 0.04771 0.090747 0.151893 0.031595 -0.069084 0.041082 -0.099571 -0.010921 0.320582 -0.006978 -0.061241 0.031927 0.14389 -0.069423 -0.061192 -0.008736 0.12625 -0.033489 0.105759 0.191958 -0.123186 -0.083268 -0.172397 -0.163284 -0.050491 0.244379 0.189299 -0.253659 -0.002445 0.166965 -0.009751 0.1245 -0.068377 -0.003256 0.067462 0.008132 0.123844 -0.024415 -0.04937 0.069012 -0.04745 0.052339 -0.016126 -0.072021 0.108172 -0.13738 0.011889 0.244274 0.252264 -0.104042 -0.025901 0.110301 -0.125809 0.055716 -0.108266 0.227629 0.022648 -0.068973 0.054948 0.012696 -0.096747 0.048263 -0.100195 -0.193781 0.003712 -0.109184 -0.059945 0.21803 0.127513 -0.202618 -0.004277 0.044707 -0.207516 0.224214 0.078842 -0.271714 0.174355 -0.17183 0.169554 0.118509 -0.135119 0.214785 -0.019053 -0.066404 0.085076 -0.107849 -0.106042 -0.056464 -0.077679 -0.080424 0.016188 0.069033 0.143773 -0.014686 0.074835 -0.176312 -0.004426 0.041028 0.047116 -0.076982 0.055239 -0.083061 0.044728 0.169716 0.24164 0.363209 0.175237 0.02725 0.054646 0.129033 -0.151702 -0.033875 -0.101157 0.027622 0.114528 -0.035098 -0.09376 -0.000788 0.016996 -0.148157 -0.188464 -0.039112 -0.165186 0.042566 -0.08654 0.191029 0.258461 0.140663 0.043284 -0.018694 0.041672 -0.052549 0.118349 0.123273 -0.177109 0.045265 -0.037445 0.022883 -0.145945 -0.006843 -0.050712 -0.352854 -0.061909 0.004342 0.038709 -0.044323 -0.080348 0.137662 0.083061 -0.121183 -0.119261 -0.151828 0.009939 0.065549 -0.001778 -0.016687 -0.018677
3901544 -0.011182 0.188708 -0.00199 -0.067399 -0.045681 -0.037148 0.050688 0.120354 -0.018997 0.000607 0.176419 -0.077056 -0.061431 -0.041585 -0.085338 0.053707 0.01511 -0.051617 0.065869 -0.014466 0.03691 0.05558 -0.034403 -0.056055 -1e-06 -0.001858 -0.057104 -0.058824 -0.086862 -0.05277 -0.000205 -0.094599 0.046509 0.087885 0.08434 0.057996 -0.000569 0.066151 -0.054813 0.038135 -0.024991 0.03176 0.096194 0.036494 0.048139 0.151996 -0.061359 -0.067653 -0.041033 0.090662 0.108488 0.028155 -0.198325 -0.063431 0.061145 -0.029838 0.080647 -0.00175 -0.062434 -0.057531 -0.060412 0.146439 -0.030287 0.003936 -0.008498 0.053573 -0.040529 -0.103426 -0.017618 -0.004582 -0.083911 -0.027106 0.001255 0.023023 -0.030094 0.040849 0.003988 0.03062 -0.02797 -0.043159 -0.024721 0.055359 0.010737 0.121126 -0.025548 0.037694 -0.028659 -0.001282 -0.011846 0.004286 -0.067924 -0.250923 0.096383 -0.053259 0.04735 0.071062 -0.070266 -0.023172 0.080258 -0.066023 0.013607 0.052078 -0.010723 -0.054172 0.03314 -0.030037 -0.09437 -0.043188 0.129106 0.009979 0.10387 -0.042494 0.012113 0.01542 0.060996 -0.065995 -0.070195 0.064417 -0.036316 0.127497 0.002037 -0.008173 0.008061 -0.123589 0.054864 -0.072472 -0.004321 0.035071 -0.061377 -0.086568 -0.043905 0.034675 -0.006787 0.031177 0.026741 0.117408 -0.018574 -0.052276 0.019987 -0.031284 -0.019155 -0.014279 0.073442 -0.001491 0.066884 -0.035742 0.050204 0.104603 -0.083654 0.20807 -0.002788 0.114606 0.013302 -0.067064 -0.001926 0.036779 0.040576 -0.056164 -0.00837 -0.01297 -0.031195 -0.010301 -0.00202 0.102593 -0.025281 0.021571 -0.039794 0.051938 -0.074567 0.074557 -0.01239 -0.117981 -0.002616 -0.059476 0.050289 -0.216556 -0.041348 -0.028676 -0.017984 -0.007789 0.064925 0.079705 -0.051885 -0.013018 -0.004174 -0.003012 -0.052015 0.003081 -0.028106 0.02428 0.048844 -0.073992 -0.085613 0.042111 0.034382 0.019963 0.157027 -0.302396 -0.085832 0.034581 0.100358 -0.010129 0.160558 -0.010191 -0.055027 -0.0468 -0.205004 -0.010818 -0.008474 0.122811 -0.06723 -0.412972 0.051792 0.141365 0.013823 -0.520025 -0.554609 -0.143081 -0.037745 -0.160062 0.151998 -0.099211 -0.091804 0.087178 0.10475 0.114538 -0.066869 -0.003486 0.147031 0.146186 0.052747 0.119045 -0.043665 -0.113195 0.181318 0.118908 0.028067 -0.078635 -0.043869 0.069607 0.229878 -0.046711 -0.098985 0.133773 -0.317641 0.090092 -0.018323 0.054522 0.091591 -0.025647 0.11571 -0.039038 0.179342 -0.010687 0.01096 0.057808 0.131008 -0.05852 0.174887 -0.285606 0.043372 0.088018 -0.122304 0.107811 -0.310416 0.032404 0.035692 -0.037907 0.079186 -0.505183 0.199579 0.10252 0.067293 -0.142996 -0.106145 0.024747 0.173304 0.300062 -0.26537 0.02712 0.208007 -0.017504 0.06887 -0.017185 0.351259 -0.18592 -0.034886 0.013434 -0.403401 0.074521 -0.091075 0.180756 -0.094819 0.061612 0.088762 -0.047338 0.02992 -0.084056 0.000268 0.123137 -0.158329 0.035551 0.038508 0.05046 0.015331 0.030871 0.062244 -0.046078 -0.143963 -0.022808 0.064947 -0.106737 -0.026332 0.103386 0.030262 -0.065374 0.041842 0.1018 -0.01045 -0.289128 -0.156823 -0.089729 -0.079842 0.171928 -0.048817 0.062073 -0.199839 0.096802 -0.069904 0.048214 0.15383 0.068487 0.041441 -0.031642 -0.09125 0.053467 0.019906 0.194827 -0.000897 -0.019897 0.104006 0.125163 0.150815 -0.108902 -0.003469 0.098622 -0.034855 0.03833 0.382662 -0.094755 0.036945 0.139556 -0.071432 0.168438 0.020203 -0.116059 0.221198 -0.106202 0.060768 -0.142813 0.409662 -0.082704 0.050678 -0.110517 0.039954 0.110378 -0.096053 -0.039155 -0.035794 -0.160708 -0.067327 0.229694 -0.041798 -0.112381 0.058501 -0.137503 0.068267 -0.001921 -0.124462 0.050605 -0.167632 0.049428 0.06588 0.197096 0.122057 0.064755 -0.01236 -0.132728 0.141217 0.046777 0.014608 0.094039
3901543 0.051415 -0.118189 -0.046279 -0.036378 -0.0269 -0.098497 0.072334 0.159186 -0.017199 -0.025829 0.206627 -0.110482 -0.111107 0.015483 0.009932 0.024086 0.133171 0.116561 -0.037758 -0.130922 -0.121315 0.052064 0.278486 -0.103328 -0.099046 -0.100297 -0.035177 -0.032115 -0.104832 -0.242495 -0.084972 0.017191 -0.032516 -0.025497 -0.098536 -0.050192 0.109413 0.130021 -0.16247 0.115352 -0.009704 -0.026495 0.062349 0.160702 0.078905 0.008047 0.077563 0.01449 -0.05471 0.132134 -0.035087 0.015206 -0.170826 0.026002 0.042811 -0.103108 0.028688 -0.164642 -0.030649 -0.003718 -0.064885 0.127366 -0.015156 0.039623 0.062717 0.045523 -0.129824 -0.039897 -0.137503 -0.267865 -0.081229 -0.162198 -0.078075 0.095468 -0.027709 0.022236 -0.093845 -0.149867 -0.015607 0.174147 -0.02697 -0.04056 0.022788 0.165637 -0.094802 0.045023 -0.101057 -0.062609 -0.039054 0.056063 0.028462 -0.198595 0.023034 -0.103771 -0.120116 0.246854 -0.018883 0.093457 0.026305 0.084092 0.035091 0.035088 0.045954 -0.089197 0.007837 0.139464 -0.135714 -0.023265 0.246529 -0.086492 0.187505 -0.004431 -0.001726 -0.022796 -0.072102 0.011191 -0.116359 0.004909 -0.079683 0.124233 -0.007647 0.22788 0.087953 -0.05819 0.100178 -0.069461 -0.029307 -0.009784 -0.033907 -0.034005 0.032789 0.124191 -0.047929 0.095422 0.047801 0.092353 -0.154094 -0.095178 -0.009852 -0.053762 -0.003478 -0.106944 0.019333 -0.096522 0.08123 -0.255907 0.052472 0.041323 -0.067221 0.060763 0.131161 -0.063024 -0.004462 -0.177143 0.063818 0.089361 0.079417 0.035592 0.133851 0.037654 0.052957 0.002342 -0.063481 0.111199 -0.134257 -0.029171 -0.079194 -0.043058 -0.035151 0.111856 -0.265479 -0.216378 0.029046 0.027647 -0.099501 -0.184155 -0.194786 -0.088033 -0.070265 0.05399 0.119204 0.121265 -0.0438 0.050297 -0.036002 -0.012288 -0.092337 0.173959 0.10841 0.073033 -0.007173 -0.095349 -0.074549 -0.008556 0.032957 -0.054561 0.055533 0.223436 -0.118107 0.020576 0.102599 -0.004158 0.070039 0.031747 -0.12805 0.030415 0.028079 -0.390573 6e-05 0.08148 0.087777 -0.061388 -0.266294 0.176033 0.054562 0.029116 0.23063 -0.012242 -0.208178 0.07315 -0.004278 -0.167268 0.129412 0.058122 0.203188 0.193851 -0.084114 -0.024722 -0.017318 0.149266 -0.046645 0.079217 0.0133 -0.020215 0.146917 0.110449 -0.117248 -0.203894 0.050873 -0.007831 0.068636 0.015366 -0.092897 -0.132326 0.044518 0.015002 -0.11029 0.060847 -0.024449 -0.061129 0.105059 0.164239 0.007666 -0.026089 0.019703 0.077465 0.078918 -0.056321 -0.095096 0.100689 0.199457 0.100695 0.092258 0.198754 -0.059963 0.052526 -0.12336 0.076413 0.029881 0.082693 -0.083671 -0.076738 -0.123902 -0.111875 0.204157 -0.000147 0.184934 0.151347 -0.242597 -0.006036 -0.106124 0.026987 -0.030126 -0.038481 0.143582 -0.043529 0.066945 0.037024 0.073473 -0.033539 0.035853 -0.079638 0.029928 -0.037425 0.066232 0.086704 0.210113 -0.086643 0.2327 0.019521 -0.150262 -0.047123 0.17564 0.056354 0.004019 0.055789 -0.019972 -0.159216 -0.056424 -0.129423 0.083703 0.011079 0.03794 -0.023615 -0.065455 -0.132287 0.114898 0.043095 0.008394 -0.002252 -0.208063 0.023226 0.048929 0.062057 -0.122396 -0.063661 -0.000603 0.086271 0.017753 0.118518 0.110687 0.060635 0.083246 -0.073931 0.047757 -0.026036 -0.293542 -0.14754 -0.2459 0.070672 -0.0308 0.170164 0.055829 0.083844 0.082244 -0.019205 -0.200469 0.061193 -0.199851 0.178332 -0.047711 0.067287 0.01602 -0.143325 0.082644 0.005464 0.053121 -0.0763 0.062048 -0.042404 0.048666 -0.167241 -0.141948 -0.007087 0.089887 0.062783 0.145032 0.090239 -0.045696 -0.093845 -0.06785 -0.032557 -0.332628 -0.122939 0.046429 -0.09464 0.122959 0.009071 0.054948 -0.098527 -0.027033 -0.120873 -0.065432 -0.052768 0.073233 -0.060739 0.078923 -0.171585 -0.06662 -0.058662 -0.033213 -0.034234
3901540 0.046799 -0.024934 0.111807 -0.058093 -0.082707 0.04585 0.120884 0.276623 -0.01096 0.136612 0.042277 -0.131063 0.024536 0.031315 -0.024255 0.139103 0.040465 -0.004689 -0.057391 -0.021973 -0.104429 -0.055083 0.054582 -0.121284 -0.119535 -0.116825 -0.090615 -0.008325 -0.034375 -0.098849 -0.088682 0.015305 0.055738 0.042616 -0.179433 -0.074297 -0.009151 0.109441 -0.110089 -0.001587 -0.023243 0.02555 0.103815 0.108234 0.061948 0.101824 0.074129 -0.012934 -0.356778 0.118763 0.06661 0.063667 -0.04122 -0.099328 0.031557 0.014079 0.220355 -0.077517 -0.097047 -0.025813 -0.10874 0.108743 -0.077717 0.135801 0.206887 0.103738 -0.167388 0.127413 -0.141875 -0.253668 -0.006404 -0.03746 -0.024833 -0.003176 -0.040836 -0.059154 0.030187 -0.070028 -0.091408 0.035581 0.010451 0.068875 0.079779 0.211204 -0.028271 0.011664 -0.011679 -0.112 0.042599 0.02198 -0.036786 -0.36823 0.134934 -0.025717 -0.014135 0.176898 -0.045409 -0.027424 -0.01082 0.019073 0.180113 0.126047 -0.13407 -0.086467 0.074604 -0.00644 -0.09426 -0.026256 0.118351 0.108284 -0.019244 -0.092424 0.06261 0.058825 0.060331 0.124342 -0.012052 -0.076643 -0.091631 0.02338 0.009436 0.079363 0.025219 -0.043475 0.083769 -0.02927 0.002346 0.011722 -0.16349 -0.069281 -0.251249 0.19415 -0.155061 0.155438 -0.073014 0.100565 -0.07035 0.052871 -0.07814 -0.038974 -0.198294 -0.072409 0.066596 -0.041734 0.108384 -0.041333 0.095373 0.021369 -0.209892 -0.003338 0.025912 -0.024949 0.05724 -0.043881 0.054795 -0.099986 0.102577 -0.019034 0.120586 0.073641 -0.143233 0.077986 -0.095287 0.067873 -0.04127 -0.04422 -0.199833 0.040872 -0.058827 0.076887 -0.023568 -0.04873 0.043127 -0.01112 -0.203383 -0.051009 -0.084723 -0.135733 -0.071516 0.016059 0.117519 0.160755 -0.082146 -0.013117 -0.156065 -0.014439 -0.025483 0.155759 0.039729 0.096539 0.034759 -0.188544 -0.108221 0.031391 -0.083793 -0.090495 -0.020682 -0.112367 -0.157376 -0.000454 -0.006987 -0.17103 -0.030462 -0.142958 0.035542 -0.119605 -0.149898 -0.152329 -0.097589 0.055534 -0.194882 -0.225281 -0.124132 0.065165 -0.021578 0.032828 -0.093335 0.117629 -0.063684 -0.067956 -0.168897 -0.116186 0.076376 0.036776 -0.023127 0.056836 0.019392 -0.030755 0.009424 0.119021 -0.030023 0.060122 -0.027715 -0.073978 0.188045 -0.017975 0.150398 -0.061289 0.051757 -0.089214 0.213905 -0.190985 -0.130088 0.07993 -0.111391 -0.080462 -0.070554 -0.030571 0.083847 -0.014331 -0.088645 -0.123097 0.07156 0.058467 0.02463 0.032824 -0.027555 -0.034589 0.008081 -0.153127 0.085988 -0.080653 -0.163051 0.002855 -0.124288 -0.045546 -0.028853 -0.002655 0.039414 0.054896 0.176284 0.189172 -0.051209 -0.02401 0.06283 -0.260407 0.215445 0.108153 -0.113623 0.112792 -0.217495 -0.074023 0.135546 0.028455 0.033933 -0.063825 0.071621 -0.015642 -0.171169 -0.052669 -0.015415 0.168151 -0.03009 -0.01406 0.091433 0.164746 0.024264 -0.057306 -0.048097 -0.031526 -0.028879 -0.105729 -0.255514 -0.033265 -0.082258 -0.088945 0.031714 -0.074565 -0.05811 0.043107 -0.158868 -0.116537 0.046931 0.01404 -0.117789 -0.088152 -0.12492 -0.020719 0.086626 0.058102 -0.142936 -0.011492 -0.079131 0.085081 -0.06007 -0.172923 0.046935 0.222285 -0.009442 0.163445 0.069657 0.162172 0.007988 -0.073027 0.10175 9.8e-05 -0.060898 0.063629 -0.003799 0.069139 0.168809 0.098455 0.036499 0.017608 0.131981 -0.132841 0.041654 -0.019056 0.058829 0.111388 -0.044245 0.031156 0.182321 -0.089034 -0.06703 -0.049566 0.106823 -0.217752 0.090538 -0.143497 0.044791 0.015763 -0.014737 -0.003313 0.088514 0.03854 -0.061811 -0.10436 -0.001821 -0.112322 -0.067654 0.038296 -0.094286 -0.110984 -0.001205 -0.166598 0.128323 -0.00641 0.163755 -0.078285 -0.132737 -0.090907 0.054143 0.029355 0.001996 -0.103442 -0.142348 -0.135425 0.099613 0.207815 0.001995 0.060297
3901539 0.002844 -0.012192 -0.003126 -0.009577 0.010389 -0.042294 0.026221 0.08473 -0.021183 0.027095 0.015449 -0.08041 -0.077014 -0.007103 -0.023274 0.071703 -0.075887 0.059891 0.004907 -0.031899 0.033618 0.016387 0.096729 0.000418 -0.015088 -0.044559 -0.063358 -0.029412 -0.049496 -0.094713 -0.029436 -0.036924 0.05836 0.062885 0.076511 0.044304 -0.032 0.038929 0.013268 -0.008595 -0.022885 0.053815 0.095072 0.00965 -0.010575 -0.047675 -0.036785 -0.0603 -0.077586 0.00784 0.018381 0.031326 0.004562 -0.007748 0.019761 0.031539 0.017821 -0.015597 -0.017044 -0.019205 0.010495 0.008827 -0.092645 -0.005542 -0.05769 0.064793 -0.019687 -0.014008 -0.015284 -0.014803 -0.07199 -0.031317 -0.040086 0.030311 0.007462 0.017748 0.007837 -0.068934 -0.012376 0.01621 0.024416 -0.01116 -0.012029 0.019831 -0.039376 0.024263 -0.043567 0.006829 -0.003838 -0.012204 0.040055 0.028969 0.014419 -0.025618 0.023046 0.011707 -0.036043 0.003571 -0.001231 -0.061725 0.035026 0.046879 -0.034813 -0.019828 -0.01027 0.105534 -0.036883 -0.066711 -0.002556 0.013774 0.051457 -0.062222 0.006516 -0.032053 -0.069127 -0.060672 -0.036849 0.000188 -0.000418 0.009387 0.057075 0.08533 0.017465 -0.037664 0.063683 -0.003468 -0.010997 0.030488 -0.045657 0.000466 -0.050436 0.039013 0.012633 -0.019267 0.040679 0.090583 -0.019515 -0.027571 -0.023223 -0.048463 0.071796 -0.04236 0.06497 -0.008436 0.037171 0.034543 0.04783 0.031547 -0.034076 -0.090069 -0.012953 0.092645 -0.005755 -0.062795 0.010759 0.041427 -0.06064 -0.005069 0.015411 0.000831 -0.051355 -0.009392 0.033994 -0.031714 0.009187 0.056745 0.026222 -0.000632 -0.033142 0.058373 0.010145 -0.084289 0.025327 0.030684 0.032907 0.004906 0.017069 -0.012659 -0.031575 0.004145 0.0576 0.088563 -0.038562 0.024998 -0.061712 -0.016543 0.023494 0.033094 -0.002948 -0.001618 0.028858 0.069717 -0.045701 -0.014081 -0.037092 0.051539 0.022249 -0.024381 -0.21086 -0.130912 0.014009 0.007143 0.052387 -0.311418 0.097424 0.034706 -0.074542 0.263814 0.007047 -0.00301 0.020371 -0.299153 0.103203 0.216068 0.108993 0.089185 -0.034636 -0.021884 -0.069269 -0.067764 0.006992 -0.119295 0.077237 0.000894 0.073535 0.009519 0.013206 0.093071 -0.052124 0.155527 -0.120041 0.066095 -0.109915 -0.023951 0.169501 0.047607 0.001549 -0.003996 0.166252 0.015163 0.12946 -0.205688 -0.16461 0.070739 -0.014168 0.061021 -0.11323 -0.04232 -0.042524 -0.086305 0.062805 -0.151554 0.40416 -0.001911 -0.10203 0.081673 0.023809 0.075373 -0.017916 -0.13779 0.060663 0.006595 0.102543 -0.024161 -0.07928 0.025564 0.435655 0.000685 -0.189821 0.081223 0.094278 0.142287 -0.130058 0.061123 0.013416 -0.042632 0.031854 0.12006 -0.442497 0.1073 0.086188 0.138701 0.03337 -0.089378 -0.016825 -0.047974 -0.006456 -0.090828 -0.036955 -0.096682 0.135952 -0.114822 -0.047634 -0.021064 0.078407 0.114751 0.06696 -0.092678 -0.088949 0.050046 -0.104726 -0.019162 -0.062909 -0.045343 -0.016078 0.059476 0.064298 -0.008088 -0.160689 0.001568 0.003178 -0.137731 0.013317 -0.011508 -0.017309 -0.015754 0.018139 -0.025717 0.060792 -0.045097 -0.212962 -0.121234 -0.069382 0.032371 -0.01698 -0.071521 -0.051424 0.075025 0.052352 -0.036411 0.019224 0.091127 0.155437 0.033373 0.243944 -0.060293 0.075666 0.006139 -0.121679 0.032277 0.011481 0.009572 0.045022 -0.023637 -0.000825 0.022648 -0.042182 0.078511 0.042895 0.00354 -0.12302 0.047676 0.218107 0.046648 -0.207826 0.000884 -0.046219 0.007802 0.046269 -0.16857 -0.110875 -0.150739 0.1987 -0.013648 0.045512 0.068823 -0.023894 -0.094942 -0.12991 -0.110316 -0.017059 0.079782 -0.089634 -0.130185 -0.046525 -0.058974 0.054384 -0.016696 0.208502 -0.008407 -0.041113 0.075997 0.042362 -0.00355 0.074726 -0.070401 0.03149 -0.069544 0.116976 0.196664 0.119198 0.067194
3901537 0.035299 -0.014454 0.069604 -0.310339 -0.028894 0.0708 -0.047091 0.018849 -0.007059 0.053368 -0.056247 -0.137932 -0.040627 -0.048246 -0.06095 0.048519 -0.089298 0.08439 0.032767 -0.146774 -0.062678 0.081785 0.106016 0.024836 -0.068813 -0.010306 -0.082768 -0.079158 -0.009644 -0.137848 -0.059814 -0.065302 0.04075 0.105724 0.134016 0.001415 0.104746 0.11236 0.024311 -0.024312 -0.060221 0.197476 0.147309 0.053221 0.017513 0.001965 -0.12885 -0.261324 -0.006063 0.09364 -0.005591 0.002154 0.028311 0.095691 -0.002995 -0.12354 -0.031263 -0.024871 -0.025893 -0.081505 -0.044901 0.03351 -0.047054 0.063412 -0.140346 0.038006 -0.056475 0.021846 -0.035626 -0.059428 -0.082172 -0.107431 -0.035992 0.075255 -0.12398 0.104769 0.055037 -0.07173 0.052089 0.050374 -0.027683 -0.021866 0.008776 0.100629 0.094415 0.059881 0.018359 -0.010765 -0.012385 -0.014795 0.07294 0.14318 0.061082 -0.010021 0.02123 -0.115855 0.027651 0.11237 -0.030921 0.047718 0.085491 -0.021585 -0.084038 -0.15913 0.006978 0.091327 -0.023081 -0.011616 -0.107758 0.03903 0.044341 -0.104278 0.011079 -0.050326 -0.076564 -0.017948 -0.12457 0.039498 -0.064273 0.08424 0.16746 0.113936 0.027963 -0.091812 0.101964 -0.099066 0.037339 0.074871 -0.100904 -0.073459 -0.027395 -0.012829 0.150556 0.021189 -0.034054 0.138899 -0.04582 -0.082661 -0.02274 -0.064333 0.100827 -0.068785 0.103374 -0.027085 0.071852 -0.007519 0.107914 0.057015 0.058832 0.032123 -0.156596 0.146542 0.043624 -0.075093 0.078973 -0.124055 -0.104682 -0.067848 0.007845 0.134161 0.069846 -0.164717 0.087182 -0.030375 -0.049587 0.026114 -0.01177 0.039786 -0.124425 0.11183 0.004941 -0.088415 0.052585 -0.041505 0.073125 -0.141264 0.027982 -0.178765 -0.117497 0.0729 0.096135 0.124966 -0.128045 -0.001622 -0.239885 -0.102817 0.012256 0.04553 0.02821 0.047 0.044855 0.048644 -0.122532 0.095248 -0.1275 -0.024292 0.213873 -0.069848 0.017407 0.067491 0.052117 -0.132213 0.160844 0.203343 0.002104 -0.017055 -0.181759 0.143392 0.002414 0.097068 0.011144 0.072236 -0.061189 0.108081 -0.278488 0.026771 -0.120027 -0.091572 -0.159341 -0.105944 -0.156864 0.05331 0.15267 0.002469 -0.164966 0.067665 0.161734 -0.120251 -0.118046 0.132927 -0.136933 0.049184 -0.00169 -0.056171 -0.514346 0.136995 0.050369 -0.065181 -0.033607 -0.091741 0.147286 -0.130387 -0.299088 -0.087679 -0.003541 -0.15531 -0.059081 -0.017932 0.018777 -0.126644 0.025896 0.043729 -0.079057 0.066982 0.022275 0.125406 0.098494 0.043697 -0.139 0.134755 0.162641 -0.001633 -0.113422 -0.157206 -0.023367 -0.022514 -0.028117 0.099325 0.042386 -0.07639 0.071859 0.019793 -0.025893 0.048237 -0.037696 -0.078745 0.217688 0.05323 -0.200082 0.025663 -0.111694 0.093911 0.224773 0.140865 -0.007799 -0.13472 0.064181 -0.086301 -0.015778 -0.001759 0.170662 -0.006102 -0.075319 0.211944 -0.019665 0.028449 0.104542 -0.094265 -0.045937 -0.047453 -0.127208 -0.061704 0.307799 0.043352 -0.101698 0.020814 0.137136 -0.0384 -0.02821 -0.048678 -0.292 0.06508 -0.07042 0.057566 -0.011366 -0.165827 0.15959 0.089445 -0.017767 -0.072583 0.010522 -0.085184 -0.083616 0.082721 -0.175478 -0.09343 0.008096 0.090436 -0.03475 0.07434 0.007081 0.225851 -0.057914 -0.05227 0.017272 -0.143686 -0.005353 0.012278 0.025464 -0.02356 0.268072 0.166961 0.03626 0.054271 0.175091 -0.058311 -0.051693 0.051981 0.032053 0.038315 -0.059491 0.024904 0.192421 -0.068064 -0.045516 -0.110386 -0.06351 -0.129651 0.074506 -0.179227 0.074627 0.174803 0.090961 -0.085145 -0.098256 0.13805 -0.038815 0.156432 -0.032723 -0.06659 0.066288 -0.099188 0.226138 -0.18055 0.167794 -0.11177 -0.076397 0.031474 0.004735 -0.083571 0.115668 -0.05935 0.191106 0.106781 0.021211 -0.137962 -0.082702 0.071377 -0.093515 0.00819 0.080145 0.029389
3901533 -0.019714 0.060494 0.056718 -0.058243 0.000928 -0.026872 -0.027072 0.090351 -0.052518 0.031452 0.167696 -0.10209 0.04772 0.015877 -0.053681 0.05896 0.009996 -0.03106 0.069521 0.011757 0.009433 0.0421 0.127278 -0.009069 -0.043727 -0.063215 -0.068756 -0.039013 -0.017355 -0.119368 -0.020741 -0.062882 0.037857 0.120362 0.010031 0.026006 0.009446 0.052752 -0.17371 -0.038557 -0.024089 0.053419 0.179363 0.16852 0.171761 0.18192 -0.093588 0.004555 0.114054 0.133499 -0.034241 -0.014912 -0.207546 -0.038585 0.023216 -0.060159 -0.015459 0.0211 -0.096323 -0.157493 -0.0753 0.108017 -0.026968 0.055902 -0.093558 0.050717 -0.085256 0.048957 -0.107304 -0.055943 -0.02528 0.007433 0.005934 0.119401 -0.051813 0.0318 -0.233556 -0.039794 -0.052162 0.024548 -0.155707 -0.03486 0.003142 0.301559 -0.075994 -0.012499 -0.063828 -0.050207 -0.053718 -0.016447 0.037454 -0.212233 0.039306 -0.104939 0.248971 0.130889 -0.082624 0.073896 0.118948 0.001471 0.09816 0.084399 -0.056378 -0.063684 0.045061 0.058876 -0.056751 -0.090565 0.170482 0.071807 0.042093 -0.137855 0.073661 0.029452 -0.007671 0.032133 -0.028092 0.002049 -0.079475 0.156364 0.030196 0.077791 -0.01297 -0.140993 0.080309 0.062494 -0.0209 0.077021 -0.046006 -0.077313 -0.111275 0.219369 -0.114121 -0.085491 0.033339 0.062337 -0.01879 -0.138696 -0.004091 -0.121772 0.019214 0.00357 0.101 -0.098612 -0.029337 -0.087587 0.017659 0.030718 -0.164602 0.102548 0.004963 0.101968 0.020469 -0.106902 0.02114 -0.059963 0.026045 -0.001443 0.049365 0.014744 -0.014433 -0.001574 0.071617 0.106416 -0.044431 -0.093063 -0.108156 0.044188 -0.049975 0.131684 0.039196 -0.160563 0.088636 -0.006361 -0.016219 -0.169503 -0.123812 -0.123058 -0.051973 0.101178 0.048378 0.061634 -0.147196 0.132937 0.008167 0.016931 -0.033056 0.019017 0.138988 0.047568 0.140236 -0.078168 -0.162114 0.042261 -0.051794 -0.104515 0.061851 -0.089248 -0.175881 0.026367 0.228414 -0.117825 0.075179 -0.023743 0.055937 -0.012939 0.202929 -0.04406 0.024168 0.038248 -0.063958 -0.084817 -0.032667 -0.048798 -0.058913 0.148586 0.083505 -0.002298 -0.136896 -0.104544 0.014983 -0.023235 0.134707 0.045991 0.028018 -0.007725 0.03299 -0.031767 -0.094796 0.183991 -0.070977 0.10186 -0.043129 0.067714 0.064182 0.010839 0.074735 0.022608 0.021541 -0.007789 0.090749 -0.032308 -0.170401 0.057461 0.014567 -0.047238 -0.030963 -0.037469 -0.007337 -0.01132 0.092573 0.005342 0.003053 0.049069 0.072764 0.025638 -0.018783 -0.10882 -0.10087 0.023656 0.098171 0.070129 -0.214949 -0.061124 0.011593 0.03003 0.011545 -0.107064 -0.057337 0.164928 0.052237 0.04834 -0.092671 -0.041256 0.134612 -0.056462 0.111134 0.193143 -0.025506 0.099521 -0.06746 0.034152 0.11417 0.037898 -0.029191 -0.013349 0.092025 -0.021092 0.002792 0.055048 0.085947 0.014899 -0.008771 -0.055507 0.053053 0.010468 0.022565 -0.07304 -0.025944 0.071478 -0.020268 -0.084478 0.080635 0.112262 0.031414 0.004745 0.023231 -0.094587 -0.044097 -0.072208 -0.085754 0.129448 -0.097611 0.081474 0.037565 -0.066039 -0.091549 -0.027663 -0.014504 -0.015655 -0.03847 -0.117748 -0.031931 0.059575 -0.073337 -0.105446 -0.020677 0.018133 0.059806 0.202577 0.040919 0.056322 0.092044 -0.056898 0.053479 -0.024064 -0.048758 0.091124 -0.048416 0.033231 0.122898 0.225493 -0.069027 -0.087684 0.15927 -0.078587 -0.224431 0.076376 -0.073082 -0.017426 -0.001147 0.072096 -0.028551 0.049883 -0.104264 -0.114044 0.063344 -0.113422 0.121341 -0.124516 0.129424 -0.004074 -0.016154 -0.083332 0.07332 0.097735 -0.033225 -0.065162 -0.014602 -0.163984 0.078992 -0.009769 -0.110512 -0.127298 0.099149 -0.066583 -0.005631 0.071181 0.033759 0.065384 0.046063 0.077452 0.078402 0.063819 0.029287 -0.0307 0.010116 -0.110947 0.054156 0.041162 0.079945 -0.048898
